<?xml version="1.0"?>
<opencv_storage>
<my_svm type_id="opencv-ml-svm">
  <svm_type>C_SVC</svm_type>
  <kernel><type>RBF</type>
    <gamma>8.9999999999999997e-002</gamma></kernel>
  <C>10.</C>
  <term_criteria><epsilon>1.1920928955078125e-007</epsilon>
    <iterations>2147483647</iterations></term_criteria>
  <var_all>324</var_all>
  <var_count>324</var_count>
  <class_count>3</class_count>
  <class_labels type_id="opencv-matrix">
    <rows>1</rows>
    <cols>3</cols>
    <dt>i</dt>
    <data>
      1 2 3</data></class_labels>
  <sv_total>71</sv_total>
  <support_vectors>
    <_>
      2.12148726e-001 2.60539383e-001 1.11652464e-001 4.52458411e-002
      5.35741933e-002 2.92039327e-002 1.16742784e-002 3.23698409e-002
      7.05714226e-002 2.15780362e-001 1.95028111e-001 7.56058767e-002
      2.28242010e-001 2.60539383e-001 8.64286423e-002 1.64441969e-002
      5.16735315e-002 1.45020172e-001 1.81823269e-001 2.60539383e-001
      1.81655064e-001 1.53207868e-001 2.54423648e-001 1.27563953e-001
      4.29771729e-002 3.83854210e-002 9.90743116e-002 2.27668434e-001
      2.60539383e-001 1.62609473e-001 2.60539383e-001 2.60539383e-001
      2.60539383e-001 7.44263232e-002 5.27344346e-002 9.33158249e-002
      1.56689927e-001 1.10005692e-001 4.85965721e-002 2.66366214e-001
      2.66951621e-001 8.83590654e-002 2.67917961e-002 4.06937972e-002
      1.22923926e-001 1.89117253e-001 9.46498811e-002 1.33593172e-001
      2.66951621e-001 2.66951621e-001 1.07467614e-001 1.02770671e-001
      7.65468031e-002 1.44560978e-001 1.34368569e-001 1.71065390e-001
      1.80176795e-001 2.66951621e-001 2.66951621e-001 1.24281630e-001
      3.09739076e-002 3.59642245e-002 5.99276274e-002 1.62033916e-001
      7.81601071e-002 2.41329774e-001 2.66951621e-001 2.66951621e-001
      1.20682575e-001 4.64253388e-002 1.11283310e-001 1.76107809e-001
      1.03215605e-001 5.00929132e-002 1.28447860e-001 2.10206956e-001
      1.61895350e-001 6.47165403e-002 1.40067294e-001 2.27429330e-001
      1.09860018e-001 9.28897262e-002 7.93759152e-002 4.80974466e-002
      5.94946668e-002 2.38610744e-001 2.38610744e-001 1.64830118e-001
      2.38610744e-001 1.62957832e-001 2.10323542e-001 9.25294310e-002
      2.19349071e-001 2.38610744e-001 2.38610744e-001 1.59596637e-001
      1.60552606e-001 1.69453487e-001 1.21717706e-001 1.37200400e-001
      1.12321720e-001 9.97631326e-002 5.39197065e-002 1.40296951e-001
      2.38610744e-001 2.38610744e-001 2.38610744e-001 1.42465487e-001
      3.20237838e-002 7.66659081e-002 9.11986232e-002 1.52097479e-001
      2.61978596e-001 1.25335738e-001 6.27180189e-002 2.03903392e-002
      6.02247268e-002 2.04458117e-001 2.61978596e-001 1.49335548e-001
      2.15313688e-001 2.61978596e-001 2.25977212e-001 1.16605736e-001
      1.09348588e-001 2.18315005e-001 4.19528037e-002 3.90380062e-002
      6.01164177e-002 1.59320503e-001 2.61978596e-001 1.42903730e-001
      7.90570304e-002 7.56288022e-002 7.62113854e-002 9.40124691e-002
      1.62227869e-001 1.23614788e-001 1.87436745e-001 2.61978596e-001
      2.61978596e-001 1.81882396e-001 2.15326443e-001 2.30876327e-001
      2.00612560e-001 2.10550904e-001 1.36743039e-001 1.58227950e-001
      1.36864454e-001 9.15871933e-002 8.19751620e-002 1.22023150e-001
      1.99489340e-001 1.79688901e-001 7.05621019e-002 9.69870836e-002
      2.37861857e-001 2.37861857e-001 1.10305473e-001 4.06168103e-002
      1.49461910e-001 2.17503011e-001 8.71117115e-002 9.60683748e-002
      5.66955917e-002 1.17860928e-001 2.37861857e-001 2.00576887e-001
      2.12923929e-001 1.93487599e-001 2.14409322e-001 1.45934194e-001
      1.10393785e-001 4.52626310e-002 2.37861857e-001 2.37861857e-001
      2.37861857e-001 1.42625555e-001 1.48966998e-001 1.73820660e-001
      1.92902431e-001 6.66328818e-002 1.14514790e-001 2.36452773e-001
      2.36452773e-001 1.91782996e-001 8.13909844e-002 1.57117769e-001
      1.38563856e-001 1.03486642e-001 1.16136581e-001 1.30527288e-001
      1.46396860e-001 2.13951856e-001 2.36452773e-001 2.22331509e-001
      9.89343077e-002 9.55041200e-002 1.92896515e-001 1.07938260e-001
      6.86266199e-002 2.36452773e-001 2.36452773e-001 2.14350015e-001
      8.17902535e-002 9.46183577e-002 1.63389817e-001 1.28260002e-001
      1.35320395e-001 1.99676290e-001 2.36452773e-001 2.29827136e-001
      1.94073841e-001 7.51454905e-002 3.83597836e-002 1.71023846e-001
      5.73758371e-002 6.46453127e-002 3.16580385e-002 9.12382752e-002
      2.58649796e-001 1.26188800e-001 1.31556481e-001 2.58649796e-001
      1.59541890e-001 6.13950789e-002 1.27697930e-001 1.19270958e-001
      2.52097726e-001 2.58649796e-001 2.50917047e-001 1.87980950e-001
      1.70554534e-001 9.02902037e-002 9.23112035e-002 6.64804578e-002
      8.51051323e-003 2.45971866e-002 9.39809605e-002 5.21629080e-002
      1.31424978e-001 2.58649796e-001 2.58649796e-001 1.42619699e-001
      1.43035322e-001 9.81918499e-002 2.31761158e-001 1.56316802e-001
      1.34029508e-001 1.76763341e-001 2.58649796e-001 2.58649796e-001
      3.50974910e-002 7.32474551e-002 1.44447118e-001 2.49422297e-001
      2.49422297e-001 1.90839157e-001 1.47924960e-001 7.63019994e-002
      5.59324175e-002 8.60506371e-002 1.05670959e-001 8.87680575e-002
      2.49422297e-001 2.49422297e-001 2.49422297e-001 1.11572415e-001
      7.85336494e-002 8.05980489e-002 1.33876830e-001 1.12415947e-001
      1.58154979e-001 2.49422297e-001 2.32492432e-001 1.12679720e-001
      5.88468872e-002 8.91016722e-002 2.49422297e-001 2.16535181e-001
      1.30048782e-001 1.15910970e-001 1.90306529e-001 2.49422297e-001
      2.17125371e-001 6.47652075e-002 1.48450166e-001 1.81621969e-001
      1.42122030e-001 1.18583560e-001 1.08803429e-001 2.12289780e-001
      2.31859371e-001 2.31859371e-001 9.93198231e-002 8.38117525e-002
      1.31196439e-001 1.86310068e-001 1.79193452e-001 2.31859371e-001
      1.84002101e-001 1.09281294e-001 9.10804272e-002 6.41286150e-002
      6.26868084e-002 1.47879288e-001 2.31859371e-001 2.06030563e-001
      1.42772838e-001 6.77316040e-002 2.31859371e-001 1.81147680e-001
      1.31215975e-001 1.95875347e-001 1.10730119e-001 2.31859371e-001
      2.31859371e-001 2.31859371e-001 1.28259003e-001 2.31859371e-001
      1.59361139e-001 1.06712513e-001 5.97804748e-002 1.13451697e-001</_>
    <_>
      2.61199296e-001 2.19649196e-001 7.51655921e-002 3.61425839e-002
      7.32953772e-002 7.04473928e-002 2.96970792e-002 3.98557000e-002
      2.61199296e-001 2.61199296e-001 2.40185142e-001 1.63606972e-001
      1.09888151e-001 1.05331279e-001 1.05394594e-001 4.44182605e-002
      7.21576586e-002 2.61199296e-001 1.57506153e-001 1.21221237e-001
      1.06139168e-001 1.48865551e-001 2.59167731e-001 1.81056589e-001
      8.71795192e-002 3.19532566e-002 1.02718972e-001 1.59786701e-001
      1.02045469e-001 2.61199296e-001 2.61199296e-001 2.61199296e-001
      2.61199296e-001 1.08175948e-001 6.93694279e-002 1.14707515e-001
      2.48842344e-001 1.15745053e-001 5.77046573e-002 5.12981936e-002
      8.56467932e-002 1.23540372e-001 1.19935393e-001 1.49404094e-001
      2.28443831e-001 1.44976929e-001 2.81161908e-002 1.97895654e-002
      1.08742982e-001 1.75883800e-001 1.28224403e-001 1.45583272e-001
      2.30839416e-001 2.48842344e-001 9.24874693e-002 7.77229890e-002
      2.19213605e-001 2.48842344e-001 2.48842344e-001 2.04674333e-001
      1.80053771e-001 7.88326859e-002 1.00062080e-001 6.02121502e-002
      1.06834151e-001 2.45906845e-001 2.48842344e-001 2.48842344e-001
      1.70458570e-001 1.75480455e-001 1.61155507e-001 1.57254621e-001
      1.41978860e-001 4.01686095e-002 3.74559872e-002 1.32457510e-001
      1.43492445e-001 1.48658723e-001 2.13363141e-001 1.83756664e-001
      2.24428877e-001 1.28966883e-001 4.69689779e-002 3.34637202e-002
      1.78329889e-002 2.41886377e-002 1.06132142e-001 2.49925211e-001
      1.70870274e-001 1.38756335e-001 9.51418728e-002 1.49929270e-001
      1.72144398e-001 2.49925211e-001 2.49925211e-001 2.49925211e-001
      1.98578119e-001 2.49925211e-001 2.01215342e-001 1.24999091e-001
      5.03299497e-002 5.81361540e-002 4.97998968e-002 1.59697339e-001
      2.49925211e-001 2.49925211e-001 2.49925211e-001 1.16413943e-001
      2.22743582e-002 1.97648145e-002 6.22611232e-002 2.02394053e-001
      2.42066935e-001 1.79511666e-001 6.02838397e-002 2.55430732e-002
      2.52378527e-002 1.43082082e-001 7.39879310e-002 2.04659626e-001
      2.42066935e-001 2.42066935e-001 2.42066935e-001 1.09533794e-001
      9.47969481e-002 2.26868093e-001 2.74689253e-002 2.76975036e-002
      1.64308250e-001 2.42066935e-001 2.42066935e-001 7.85222724e-002
      1.89465471e-002 2.32826434e-002 2.70064324e-002 2.24115729e-001
      1.42644569e-001 2.42066935e-001 2.42066935e-001 2.42066935e-001
      2.42066935e-001 8.14391300e-002 1.27818227e-001 2.42066935e-001
      1.19037032e-001 1.06867440e-001 2.03596964e-001 2.50614285e-001
      1.49937138e-001 8.10562596e-002 5.34145348e-002 6.25158921e-002
      1.70859009e-001 9.73099545e-002 1.41177729e-001 2.00074807e-001
      2.50614285e-001 2.50614285e-001 6.79137334e-002 5.10228612e-002
      1.28815800e-001 1.74945191e-001 1.76316962e-001 1.08950727e-001
      9.68217477e-002 1.53041527e-001 1.25815004e-001 2.50614285e-001
      9.66173261e-002 1.26186147e-001 2.50558257e-001 2.00059026e-001
      1.47652581e-001 5.18802442e-002 2.50614285e-001 2.50614285e-001
      2.50614285e-001 1.35288239e-001 9.72613841e-002 1.73349455e-001
      9.83286053e-002 1.29727721e-001 1.27581805e-001 2.68173486e-001
      2.68173486e-001 1.57255322e-001 8.29588920e-002 1.70276955e-001
      1.34644106e-001 8.62428620e-002 6.30730167e-002 8.81515592e-002
      5.29752448e-002 2.68173486e-001 2.68173486e-001 1.83020324e-001
      1.66774139e-001 4.89795320e-002 1.29701003e-001 1.39956400e-001
      9.20501053e-002 2.49362558e-001 2.68173486e-001 2.07990274e-001
      1.71928823e-001 8.54310319e-002 1.45459116e-001 4.82781343e-002
      8.15562457e-002 1.41319051e-001 1.38533533e-001 2.68173486e-001
      2.68173486e-001 1.56732783e-001 3.28784809e-002 6.75056428e-002
      7.30310902e-002 3.99602316e-002 9.93332043e-002 1.72552973e-001
      2.48257026e-001 8.81372094e-002 7.25707859e-002 6.33111522e-002
      8.91369581e-002 1.02657966e-001 9.40073133e-002 2.48257026e-001
      1.94880873e-001 2.48257026e-001 2.48257026e-001 1.17628410e-001
      7.99725205e-002 1.09036759e-001 2.48257026e-001 6.87888563e-002
      6.92848116e-002 4.61886562e-002 1.47729084e-001 6.41324222e-002
      1.71560749e-001 2.48257026e-001 2.48257026e-001 2.14248836e-001
      1.07254043e-001 1.91266492e-001 8.64447877e-002 2.29728162e-001
      1.47629112e-001 1.96806192e-001 2.48257026e-001 2.48257026e-001
      8.72097090e-002 6.98794276e-002 1.64048702e-001 1.75029874e-001
      2.17984527e-001 2.35865504e-001 1.22884005e-001 7.44339079e-002
      8.03853646e-002 1.41114637e-001 1.37361497e-001 9.42097455e-002
      2.26338983e-001 2.35865504e-001 2.35865504e-001 1.88260138e-001
      6.05479144e-002 7.80684948e-002 2.05715626e-001 1.61891386e-001
      2.35865504e-001 1.58791810e-001 1.29498005e-001 1.03508390e-001
      7.78126791e-002 1.18338898e-001 2.32763752e-001 1.92039162e-001
      2.07011163e-001 2.10793614e-001 2.35865504e-001 2.35865504e-001
      2.05238253e-001 5.92139177e-002 4.91969585e-002 8.61532539e-002
      1.39185518e-001 2.14858264e-001 1.15692556e-001 2.33102143e-001
      2.40390301e-001 2.40390301e-001 2.00982735e-001 8.55079368e-002
      1.14050902e-001 6.58311024e-002 2.40390301e-001 2.40390301e-001
      1.66236103e-001 2.40390301e-001 1.72339126e-001 1.24177702e-001
      3.09232753e-002 8.05397108e-002 2.06245169e-001 2.40390301e-001
      2.40390301e-001 1.72997504e-001 2.34848619e-001 1.53967366e-001
      5.46214208e-002 6.06448874e-002 1.01957820e-001 1.28889173e-001
      2.40390301e-001 2.40390301e-001 5.66764735e-002 4.53630090e-002
      1.60014536e-002 1.35773886e-002 3.76175754e-002 8.29896554e-002</_>
    <_>
      2.55517632e-001 1.49330646e-001 1.00915320e-001 7.22155944e-002
      8.86158869e-002 7.59079531e-002 5.99070005e-002 2.88119111e-002
      2.48534963e-001 2.55517632e-001 2.46179089e-001 1.85644776e-001
      1.75442353e-001 1.55197591e-001 7.49119446e-002 1.30464330e-001
      4.21829112e-002 2.40128160e-001 1.12149082e-001 6.53677657e-002
      1.04332298e-001 1.94397926e-001 2.55517632e-001 2.04627246e-001
      9.43205804e-002 5.24356477e-002 6.63198382e-002 1.17409013e-001
      1.42285317e-001 2.38598883e-001 2.55517632e-001 2.55517632e-001
      2.55517632e-001 1.69539154e-001 6.91370219e-002 9.09681693e-002
      2.12011129e-001 1.27247736e-001 4.62148190e-002 7.23509565e-002
      1.30314246e-001 1.31324440e-001 1.68912157e-001 1.00030668e-001
      2.13409916e-001 1.51415989e-001 2.66585853e-002 3.07679698e-002
      1.33495212e-001 2.49801159e-001 1.64839894e-001 1.64290309e-001
      1.52387664e-001 2.49801159e-001 9.34977457e-002 9.90494192e-002
      2.22083688e-001 2.49801159e-001 2.49801159e-001 1.90414354e-001
      1.84889257e-001 3.85853834e-002 7.30160177e-002 8.54544342e-002
      6.12064004e-002 2.49801159e-001 2.49801159e-001 2.49801159e-001
      2.35499904e-001 1.42434835e-001 6.63203672e-002 1.33257508e-001
      1.31672457e-001 3.83872874e-002 3.31398323e-002 1.48750946e-001
      2.07934052e-001 1.30953476e-001 2.15641856e-001 2.22214311e-001
      1.65349647e-001 9.51293781e-002 2.39647515e-002 1.63190197e-002
      2.92876698e-002 3.05710211e-002 6.79905191e-002 2.46181533e-001
      2.46181533e-001 1.37275785e-001 1.20391168e-001 8.50622654e-002
      2.46181533e-001 2.46181533e-001 2.46181533e-001 2.23137155e-001
      1.53411373e-001 1.90261185e-001 1.84846267e-001 1.42702177e-001
      4.17621695e-002 9.08041000e-002 1.38745442e-001 1.61675155e-001
      2.31031403e-001 2.46181533e-001 2.46181533e-001 1.34048864e-001
      1.35460775e-002 1.33628892e-002 6.97915331e-002 2.11336777e-001
      2.26824448e-001 1.79151341e-001 5.29844575e-002 3.46416533e-002
      2.14836821e-002 1.97416425e-001 1.55138940e-001 1.60725847e-001
      2.26824448e-001 2.26824448e-001 2.26824448e-001 1.89692929e-001
      1.58691183e-001 1.53333768e-001 3.26679759e-002 4.45540473e-002
      1.40795425e-001 2.26824448e-001 2.26824448e-001 6.07912354e-002
      1.92178972e-002 2.04265304e-002 1.86372194e-002 2.23584488e-001
      1.98258296e-001 2.26824448e-001 2.26824448e-001 2.26824448e-001
      2.26824448e-001 2.19032153e-001 1.48603216e-001 1.90179020e-001
      1.93987146e-001 1.21488325e-001 1.88271955e-001 2.36888513e-001
      1.18008845e-001 9.24786404e-002 9.30180624e-002 1.06633693e-001
      1.27042189e-001 1.38364479e-001 6.42401874e-002 2.22285718e-001
      2.36888513e-001 2.36888513e-001 1.20907649e-001 4.89230342e-002
      8.48375931e-002 1.62864462e-001 1.96293473e-001 9.76024792e-002
      8.29791725e-002 1.09427139e-001 1.33424103e-001 2.36888513e-001
      2.11593911e-001 1.80032343e-001 1.87894851e-001 1.68867528e-001
      6.28522262e-002 9.28237438e-002 2.36888513e-001 2.36888513e-001
      2.36888513e-001 1.82515457e-001 1.18167132e-001 2.22168595e-001
      1.29996568e-001 5.64064495e-002 1.82160005e-001 2.46390447e-001
      2.46390447e-001 1.21581972e-001 7.22779855e-002 1.21159658e-001
      1.71647832e-001 1.06170639e-001 6.04076274e-002 1.47519484e-001
      1.71931654e-001 2.33147681e-001 2.46390447e-001 1.64171413e-001
      1.17404334e-001 7.61771575e-002 1.31859809e-001 9.75892991e-002
      1.44131258e-001 2.46390447e-001 2.46390447e-001 2.07270622e-001
      1.91889986e-001 5.77342026e-002 2.14503840e-001 5.65259010e-002
      1.06112450e-001 1.52727753e-001 1.45267501e-001 2.46390447e-001
      2.46390447e-001 1.99314728e-001 7.17942789e-002 8.63148943e-002
      8.88720304e-002 5.54763302e-002 7.91596174e-002 1.71019524e-001
      2.62621701e-001 7.49029890e-002 3.97343822e-002 8.13890696e-002
      8.25927183e-002 7.87930712e-002 1.03742078e-001 2.02736571e-001
      1.99147150e-001 2.62621701e-001 2.53010839e-001 1.38442189e-001
      9.58039984e-002 1.01238161e-001 2.62621701e-001 8.64685103e-002
      4.63576503e-002 6.02154881e-002 1.49760708e-001 6.85707256e-002
      8.94771442e-002 2.62621701e-001 2.62621701e-001 2.62621701e-001
      1.04234196e-001 1.55973062e-001 9.99535546e-002 2.37019777e-001
      1.37268081e-001 9.77579281e-002 2.62621701e-001 2.62621701e-001
      5.43367453e-002 7.61518106e-002 1.37725413e-001 2.00655773e-001
      2.32832298e-001 2.32832298e-001 1.66507095e-001 7.83649087e-002
      7.94116259e-002 7.87268281e-002 7.65830502e-002 1.45362556e-001
      2.32832298e-001 2.32832298e-001 2.32832298e-001 2.24332541e-001
      5.62982522e-002 1.22524746e-001 2.32832298e-001 1.24374479e-001
      2.01655373e-001 1.71065867e-001 1.30984604e-001 7.82232732e-002
      3.63048427e-002 1.13045245e-001 2.32832298e-001 2.00651795e-001
      1.59792840e-001 2.32832298e-001 2.32832298e-001 2.32832298e-001
      2.02930868e-001 5.02623022e-002 5.77092394e-002 1.00531615e-001
      9.73980948e-002 1.73265278e-001 2.23409459e-001 1.73960328e-001
      2.39184573e-001 2.39184573e-001 2.21781075e-001 4.81713451e-002
      1.69485331e-001 9.69946086e-002 2.39184573e-001 2.39184573e-001
      1.08406879e-001 2.39184573e-001 1.31802544e-001 1.36653289e-001
      5.49411960e-002 9.81034189e-002 1.27346575e-001 2.39184573e-001
      2.39184573e-001 1.71717927e-001 2.31625244e-001 1.98876947e-001
      4.72823493e-002 6.74497485e-002 1.25452161e-001 1.67932495e-001
      2.39184573e-001 2.39184573e-001 6.17892221e-002 5.47046103e-002
      2.08307449e-002 5.71314758e-003 4.91164923e-002 1.16803378e-001</_>
    <_>
      2.01101273e-001 9.85596851e-002 5.08928709e-002 8.75734817e-003
      1.88854963e-001 1.61905691e-001 1.21711843e-001 1.10846676e-001
      2.23063901e-001 1.67659402e-001 1.65531009e-001 6.51091188e-002
      2.18447223e-001 2.64344782e-001 2.64344782e-001 1.05730526e-001
      1.06773235e-001 1.70941785e-001 8.11550319e-002 5.65961152e-002
      6.49612099e-002 9.20033008e-002 2.64344782e-001 2.64344782e-001
      1.92948654e-001 4.65744734e-002 4.49672304e-002 9.33667943e-002
      8.30514655e-002 1.29513875e-001 2.64344782e-001 2.64344782e-001
      2.64344782e-001 2.32384846e-001 4.81642820e-002 6.91089034e-002
      8.32185075e-002 6.42988980e-002 6.91159442e-002 2.22782999e-001
      2.54087478e-001 2.33993575e-001 9.73771289e-002 1.44499123e-001
      1.28886774e-001 1.42692447e-001 5.12756333e-002 1.29427344e-001
      1.64461508e-001 1.30381688e-001 1.19821973e-001 1.14241958e-001
      1.78218529e-001 1.89137593e-001 7.53499642e-002 6.24973364e-002
      2.53982157e-001 2.54087478e-001 2.54087478e-001 2.54087478e-001
      1.01812869e-001 3.83648761e-002 6.33561462e-002 1.02543034e-001
      9.15494636e-002 2.54087478e-001 2.54087478e-001 2.54087478e-001
      2.21960410e-001 1.45324737e-001 8.61652792e-002 1.13846235e-001
      9.42193121e-002 3.87440994e-002 9.21006724e-002 1.09620623e-001
      4.82904278e-002 8.63670334e-002 1.82879910e-001 2.02995270e-001
      1.51121497e-001 6.52940646e-002 4.98909429e-002 5.64639941e-002
      3.06600295e-002 4.23034802e-002 9.96688902e-002 2.12150678e-001
      2.56325454e-001 1.59720689e-001 7.06768334e-002 1.52205333e-001
      2.56325454e-001 2.56325454e-001 2.03620106e-001 2.56325454e-001
      2.56325454e-001 1.67353362e-001 8.05381015e-002 8.33690315e-002
      1.38655275e-001 1.40069678e-001 1.69636145e-001 2.00529844e-001
      2.56325454e-001 2.56325454e-001 2.56325454e-001 1.47087678e-001
      2.37751063e-002 1.73930526e-002 6.92623928e-002 1.99546888e-001
      2.15098411e-001 2.05333069e-001 1.23618349e-001 9.31930356e-003
      5.72649436e-003 6.72958195e-002 1.10907264e-001 2.27203891e-001
      2.58249015e-001 2.58249015e-001 2.58249015e-001 2.58249015e-001
      1.58085808e-001 2.65783928e-002 4.27321717e-002 3.90794799e-002
      2.07459614e-001 2.58249015e-001 2.23322511e-001 8.12088400e-002
      5.36839478e-002 2.76995189e-002 3.55256237e-002 6.93329647e-002
      1.46364287e-001 2.58249015e-001 2.58249015e-001 2.58249015e-001
      1.41796798e-001 1.40161753e-001 2.09832743e-001 5.13184294e-002
      1.23037554e-001 1.24781363e-001 2.09304392e-001 1.71422526e-001
      1.79169327e-001 1.02479205e-001 1.54295370e-001 1.52342319e-001
      6.69515133e-002 1.48674279e-001 8.94211903e-002 2.17148334e-001
      2.17148334e-001 2.12110847e-001 2.17148334e-001 1.25613466e-001
      8.67278129e-002 1.29208907e-001 9.49995816e-002 1.01808399e-001
      1.70767367e-001 1.74565792e-001 2.17148334e-001 1.38998434e-001
      2.13225335e-001 2.17148334e-001 1.01431750e-001 1.41599968e-001
      8.03086832e-002 2.03706026e-001 2.17148334e-001 2.17148334e-001
      2.17148334e-001 2.17148334e-001 1.18180752e-001 1.55875102e-001
      3.77391875e-002 8.31242725e-002 1.49721175e-001 2.10007071e-001
      2.35720515e-001 2.35720515e-001 1.48031816e-001 7.06803054e-002
      4.58217375e-002 2.93874480e-002 7.61877000e-002 1.23301700e-001
      2.28640839e-001 2.35720515e-001 2.35720515e-001 1.81160673e-001
      1.12550713e-001 4.65107113e-002 3.54942307e-002 6.88499734e-002
      2.32428879e-001 2.35720515e-001 2.35720515e-001 2.35720515e-001
      1.48470446e-001 1.28020748e-001 3.69665176e-002 2.33858284e-002
      1.43226326e-001 2.35720515e-001 2.35720515e-001 2.35720515e-001
      2.35720515e-001 1.26548439e-001 1.52147293e-001 2.70473007e-002
      8.89909863e-002 5.67936152e-002 1.34291619e-001 2.67222226e-001
      1.63780674e-001 4.09619287e-002 3.19040976e-002 8.42667818e-002
      1.11299880e-001 8.43807235e-002 8.27027261e-002 2.55114794e-001
      2.67222226e-001 2.67222226e-001 1.30495787e-001 3.37960869e-002
      8.39169696e-002 8.47999603e-002 2.32151210e-001 3.41232195e-002
      3.82895246e-002 1.10996045e-001 1.13354258e-001 3.42055857e-002
      1.89907663e-002 2.67222226e-001 2.67222226e-001 1.97385147e-001
      1.30958840e-001 2.18977973e-001 2.01044515e-001 2.58861929e-001
      1.11154109e-001 2.77386867e-002 2.67222226e-001 2.67222226e-001
      6.26702011e-002 6.35821372e-002 1.99683353e-001 2.41682559e-001
      2.41682559e-001 1.60427675e-001 1.22894056e-001 6.64910600e-002
      7.31861442e-002 1.01464994e-001 6.96683228e-002 1.63216829e-001
      2.40695864e-001 2.41682559e-001 2.41682559e-001 2.41682559e-001
      6.72238991e-002 9.47816819e-002 2.41682559e-001 1.46549284e-001
      2.41682559e-001 1.96854487e-001 1.83995292e-001 6.72284514e-002
      3.57155725e-002 8.35415870e-002 2.41682559e-001 2.41682559e-001
      1.21200100e-001 1.19786300e-001 1.57071099e-001 1.03575028e-001
      1.32209435e-001 9.90463346e-002 5.66512235e-002 2.41682559e-001
      6.72011822e-002 1.08502552e-001 2.31030017e-001 2.31030017e-001
      1.64763018e-001 2.31030017e-001 1.96206182e-001 1.33295357e-001
      5.19431122e-002 1.08751059e-001 2.31030017e-001 2.31030017e-001
      2.31030017e-001 1.61711827e-001 1.95095599e-001 9.98955518e-002
      1.64013758e-001 1.18015021e-001 2.31030017e-001 1.77747771e-001
      1.74787492e-001 1.16475575e-001 6.63311034e-002 1.26737654e-001
      7.80350864e-002 5.64642437e-002 2.01026544e-001 2.17400357e-001
      2.31030017e-001 2.31030017e-001 1.02876097e-001 4.66478877e-002
      6.75067827e-002 3.65264975e-002 1.51394069e-001 2.31030017e-001</_>
    <_>
      1.95951089e-001 1.11746021e-001 4.47391346e-002 4.37726825e-002
      1.81235865e-001 1.71388805e-001 9.04484615e-002 1.22526780e-001
      1.93253607e-001 1.60078660e-001 1.74718499e-001 1.23855241e-001
      2.55694151e-001 2.66192466e-001 2.66192466e-001 8.93340632e-002
      4.67397571e-002 1.15575694e-001 4.69016619e-002 7.73788393e-002
      3.04576382e-002 1.20971814e-001 2.66192466e-001 2.66192466e-001
      1.47839934e-001 7.42239207e-002 4.90239039e-002 3.87226045e-002
      1.42328262e-001 1.20112278e-001 2.66192466e-001 2.66192466e-001
      2.66192466e-001 2.66192466e-001 4.56095040e-002 2.70799585e-002
      1.00772701e-001 4.87344489e-002 7.42366314e-002 2.06669748e-001
      2.68104762e-001 2.05095723e-001 8.69936198e-002 1.18426770e-001
      1.42016038e-001 1.49081051e-001 2.00650468e-002 1.25279620e-001
      1.49983764e-001 1.78890765e-001 1.08018368e-001 6.92744181e-002
      1.83853984e-001 2.43642405e-001 6.47789165e-002 1.21234126e-001
      1.86359182e-001 2.68104762e-001 2.68104762e-001 1.93303660e-001
      1.26620427e-001 4.59991321e-002 4.05889712e-002 1.53002411e-001
      6.88612610e-002 2.68104762e-001 2.68104762e-001 2.68104762e-001
      1.89936087e-001 7.17442036e-002 9.96010825e-002 1.70084506e-001
      9.45975855e-002 1.97320469e-002 1.00804694e-001 9.80590209e-002
      5.54520153e-002 6.73673227e-002 1.66978613e-001 1.95120916e-001
      1.93112105e-001 1.15689382e-001 1.67897176e-002 4.55273725e-002
      4.53137420e-002 3.54276560e-002 5.66799901e-002 1.93372473e-001
      2.48611912e-001 1.82812065e-001 1.62365064e-001 3.80933359e-002
      2.17298061e-001 2.48611912e-001 2.34540567e-001 2.46989802e-001
      2.46694714e-001 1.69800013e-001 2.12328732e-001 2.01554969e-001
      2.39160676e-002 8.22456032e-002 7.51302615e-002 2.26607442e-001
      2.48611912e-001 2.48611912e-001 2.48611912e-001 1.57012999e-001
      7.21799908e-003 2.48805378e-002 7.07163587e-002 2.10270107e-001
      2.59483397e-001 1.93005964e-001 1.10697128e-001 1.99456904e-002
      1.22981388e-002 6.61514252e-002 1.59430295e-001 1.78310573e-001
      2.64400750e-001 2.64400750e-001 1.95878953e-001 2.64400750e-001
      9.18671116e-002 7.22030178e-002 4.67735566e-002 3.17413248e-002
      2.41455898e-001 2.64400750e-001 2.26903751e-001 8.53727236e-002
      4.19183671e-002 4.51471955e-002 5.08001000e-002 9.93327945e-002
      1.02928340e-001 2.64400750e-001 2.64400750e-001 2.64400750e-001
      1.48528039e-001 1.71591535e-001 1.25369653e-001 1.13106757e-001
      1.17431127e-001 1.78122014e-001 1.37846902e-001 1.88725442e-001
      2.22529173e-001 7.57821128e-002 1.80373892e-001 1.04842022e-001
      9.19940099e-002 1.80663481e-001 1.01845331e-001 1.54846087e-001
      2.22529173e-001 2.22529173e-001 2.15471044e-001 8.34455416e-002
      9.42928791e-002 1.59440711e-001 1.03063598e-001 9.43650827e-002
      1.12025976e-001 2.22529173e-001 2.22529173e-001 1.39916629e-001
      2.16960967e-001 1.67858765e-001 1.16359927e-001 1.32542074e-001
      1.40564516e-001 1.30830616e-001 2.22529173e-001 2.22529173e-001
      2.22529173e-001 2.12917373e-001 1.56857997e-001 1.55686527e-001
      1.19909599e-001 5.40410951e-002 1.10563800e-001 1.99124858e-001
      2.34752283e-001 1.89551607e-001 1.49590015e-001 9.26737040e-002
      1.16242357e-001 1.04152754e-001 6.11610599e-002 1.02115788e-001
      1.28805637e-001 2.34752283e-001 2.34752283e-001 2.34752283e-001
      1.44987270e-001 6.14763983e-002 1.08897470e-001 1.67244390e-001
      2.34752283e-001 2.29594320e-001 2.34752283e-001 1.60469115e-001
      1.53616697e-001 7.63510764e-002 7.11498037e-002 1.26913503e-001
      2.34752283e-001 2.34752283e-001 2.34752283e-001 2.34752283e-001
      1.91112533e-001 1.47344276e-001 4.30545397e-002 4.00035307e-002
      9.07221511e-002 4.38785255e-002 1.46680966e-001 2.74237633e-001
      1.42673522e-001 6.11476414e-002 3.16685326e-002 9.46674570e-002
      1.67036459e-001 6.20799102e-002 6.76889718e-002 2.07481593e-001
      2.74237633e-001 2.74237633e-001 1.98199645e-001 7.71866217e-002
      8.53169039e-002 1.00060664e-001 2.09978253e-001 3.25171240e-002
      4.70079072e-002 5.89000359e-002 8.22057202e-002 4.46084477e-002
      4.27638106e-002 2.74237633e-001 2.74237633e-001 2.34583333e-001
      1.63270772e-001 1.17273755e-001 2.43976489e-001 1.30185962e-001
      1.44889385e-001 9.41174254e-002 2.74237633e-001 2.74237633e-001
      4.96905409e-002 6.88441843e-002 1.36418879e-001 2.51652837e-001
      2.51652837e-001 1.86838895e-001 1.12103812e-001 7.46867210e-002
      9.72627550e-002 8.73342827e-002 1.02986343e-001 1.29894137e-001
      2.51652837e-001 2.38574252e-001 2.51652837e-001 2.51652837e-001
      7.74821341e-002 1.56195626e-001 2.51652837e-001 1.74325243e-001
      1.26324356e-001 2.51652837e-001 8.56351703e-002 7.07987696e-002
      4.33001406e-002 1.35483369e-001 2.51652837e-001 2.51652837e-001
      9.66014713e-002 1.06435932e-001 1.51421443e-001 9.42667052e-002
      1.21950239e-001 7.42480382e-002 4.06577140e-002 2.51652837e-001
      1.17764987e-001 1.60627633e-001 2.42715433e-001 1.91122726e-001
      1.70847535e-001 2.25702286e-001 1.43202037e-001 5.18149175e-002
      1.00951135e-001 2.42715433e-001 2.42715433e-001 2.42715433e-001
      2.00564548e-001 1.58893377e-001 1.30942777e-001 3.34502719e-002
      8.12666342e-002 1.14358746e-001 2.42715433e-001 1.31450802e-001
      2.42715433e-001 8.20673406e-002 7.49044642e-002 1.31174415e-001
      5.19344285e-002 2.74606049e-002 2.42351487e-001 2.42715433e-001
      1.86177030e-001 2.42715433e-001 5.59876189e-002 3.45520526e-002
      5.79281822e-002 1.31168533e-002 1.50700659e-001 2.42715433e-001</_>
    <_>
      2.02894986e-001 9.84101444e-002 3.25101838e-002 7.27672577e-002
      1.53814152e-001 1.96357310e-001 9.11886692e-002 1.37248054e-001
      1.89953104e-001 1.73426390e-001 1.55203998e-001 1.16716318e-001
      2.64443696e-001 2.64443696e-001 2.64443696e-001 8.16845521e-002
      4.89832498e-002 1.19884744e-001 6.26139268e-002 5.92580698e-002
      3.92758213e-002 1.31582797e-001 2.64443696e-001 2.64443696e-001
      1.72679469e-001 6.62772879e-002 4.41620834e-002 4.42497246e-002
      1.29849300e-001 1.02235958e-001 2.64443696e-001 2.64443696e-001
      2.64443696e-001 2.64443696e-001 3.79675999e-002 3.05987429e-002
      1.23527005e-001 4.28196229e-002 8.46232250e-002 2.23937348e-001
      2.58472890e-001 2.43585169e-001 8.10919702e-002 1.07366949e-001
      1.24812201e-001 1.60582408e-001 2.41173208e-002 1.34245455e-001
      1.51735276e-001 1.66664615e-001 1.44222111e-001 9.08480883e-002
      1.49334505e-001 1.97887674e-001 7.07421228e-002 1.16018280e-001
      1.72075540e-001 2.58472890e-001 2.58472890e-001 2.41411969e-001
      1.30120307e-001 3.55427489e-002 3.64344716e-002 1.69531763e-001
      5.34758233e-002 2.58472890e-001 2.58472890e-001 2.58472890e-001
      2.23236814e-001 1.08096257e-001 6.14760481e-002 1.43771112e-001
      8.41992348e-002 1.70643069e-002 9.35656056e-002 9.73912403e-002
      6.23104088e-002 1.03387907e-001 1.82777822e-001 1.80535913e-001
      1.71972692e-001 1.01165585e-001 3.22178118e-002 4.25533727e-002
      3.71350385e-002 3.95376533e-002 8.36695880e-002 2.11644083e-001
      2.49517202e-001 1.89780280e-001 1.78093150e-001 3.74258608e-002
      2.16039419e-001 2.21075147e-001 2.49517202e-001 2.49517202e-001
      2.49517202e-001 1.17099240e-001 1.95353866e-001 2.07833320e-001
      4.23969254e-002 5.39464466e-002 6.94011152e-002 2.49517202e-001
      2.49517202e-001 2.49517202e-001 2.49517202e-001 1.63011998e-001
      1.57663282e-002 1.26449931e-002 8.48313570e-002 2.04065457e-001
      2.37471461e-001 2.12376714e-001 1.11638308e-001 1.04835527e-002
      1.32805733e-002 5.54088131e-002 1.57360137e-001 1.53800681e-001
      2.68275410e-001 2.68275410e-001 2.01347113e-001 2.68275410e-001
      8.10222998e-002 8.83232281e-002 4.73958254e-002 3.02448682e-002
      2.48535410e-001 2.68275410e-001 2.18529388e-001 1.00248829e-001
      3.66472676e-002 4.75449711e-002 4.89084497e-002 8.96158367e-002
      9.33565646e-002 2.68275410e-001 2.68275410e-001 2.68275410e-001
      1.27921730e-001 1.72831684e-001 1.13613360e-001 1.37876227e-001
      1.12321958e-001 1.77160859e-001 1.13335639e-001 2.24924684e-001
      2.14540586e-001 8.67089704e-002 1.81853652e-001 1.04455031e-001
      1.00151882e-001 2.01339304e-001 9.71393883e-002 1.55298755e-001
      2.24924684e-001 2.24924684e-001 2.07468212e-001 1.01761475e-001
      7.78168514e-002 1.55789375e-001 9.75781977e-002 8.41544271e-002
      1.04426272e-001 2.24924684e-001 2.24924684e-001 9.34519842e-002
      2.19914734e-001 1.58014178e-001 1.26549065e-001 1.38444856e-001
      1.26283705e-001 1.52540401e-001 2.24924684e-001 2.24924684e-001
      2.10229680e-001 2.18904868e-001 1.59215391e-001 1.41271144e-001
      1.37570173e-001 6.83734417e-002 8.38045105e-002 2.08596244e-001
      2.36436084e-001 1.81572631e-001 1.83787718e-001 6.41293526e-002
      1.25743076e-001 1.00939699e-001 7.59005249e-002 6.78610951e-002
      1.53631315e-001 2.36436084e-001 2.36436084e-001 2.36436084e-001
      1.31129071e-001 7.19988048e-002 1.04972303e-001 1.74136221e-001
      2.33417913e-001 2.36436084e-001 2.15200216e-001 1.25598192e-001
      1.42174304e-001 1.15088426e-001 7.20678195e-002 1.23899378e-001
      2.36436084e-001 2.36436084e-001 2.36436084e-001 2.36436084e-001
      1.59024358e-001 1.31002456e-001 1.03535146e-001 4.57157269e-002
      9.17987004e-002 5.43365665e-002 1.52237684e-001 2.72283614e-001
      1.27520844e-001 7.77487233e-002 3.64663526e-002 9.87284854e-002
      1.48077860e-001 5.74065223e-002 6.38751760e-002 2.16021255e-001
      2.72283614e-001 2.72283614e-001 1.95217192e-001 8.80076513e-002
      7.67549574e-002 1.04655840e-001 2.41997257e-001 4.30645719e-002
      6.19945861e-002 5.08794636e-002 6.63877651e-002 6.06413819e-002
      5.17679900e-002 2.72283614e-001 2.72283614e-001 1.87530175e-001
      1.72661811e-001 1.39987916e-001 2.33847976e-001 1.29089832e-001
      1.64318547e-001 1.05661489e-001 2.72283614e-001 2.72283614e-001
      4.38547693e-002 6.45527840e-002 1.43873423e-001 2.51361072e-001
      2.51361072e-001 1.42660066e-001 1.25238895e-001 7.18387514e-002
      1.00127749e-001 7.89451525e-002 9.41309854e-002 1.61584452e-001
      2.51361072e-001 2.41673499e-001 2.49005169e-001 2.51361072e-001
      9.06326994e-002 1.45394623e-001 2.37160295e-001 1.90496534e-001
      1.36751860e-001 2.51361072e-001 1.03987128e-001 7.32714981e-002
      5.03982268e-002 1.28210202e-001 2.51361072e-001 2.51361072e-001
      1.14889748e-001 1.11799821e-001 1.52285576e-001 8.04981589e-002
      1.04222842e-001 8.90185460e-002 4.99856882e-002 2.51361072e-001
      1.05031312e-001 1.49118736e-001 2.35527635e-001 2.35527635e-001
      1.55924678e-001 1.85956553e-001 1.36244193e-001 7.50463903e-002
      1.07999347e-001 2.35527635e-001 2.35527635e-001 2.35527635e-001
      2.35527635e-001 1.91910997e-001 8.45890567e-002 2.19184514e-002
      1.01874225e-001 1.35634765e-001 2.35527635e-001 1.45096183e-001
      2.35527635e-001 1.00474313e-001 6.33568689e-002 1.06878564e-001
      6.30345568e-002 4.08697762e-002 2.35527635e-001 2.35527635e-001
      2.12080210e-001 2.35527635e-001 6.74127564e-002 4.81053330e-002
      4.10326943e-002 1.03124985e-002 1.57645360e-001 2.35527635e-001</_>
    <_>
      2.59669870e-001 2.59669870e-001 1.43250719e-001 1.66701414e-002
      8.73788148e-002 2.97137126e-002 7.28543382e-003 5.08296676e-002
      1.59570813e-001 2.59669870e-001 1.69758469e-001 1.98293328e-001
      9.20387432e-002 2.42017806e-001 1.37874305e-001 5.79261519e-002
      1.38561413e-001 1.62011236e-001 2.29260921e-001 1.76348642e-001
      1.01241626e-001 2.65548769e-002 2.30495930e-001 1.13298766e-001
      9.99665260e-002 7.89242685e-002 8.78342018e-002 1.29521310e-001
      1.00798912e-001 2.25815445e-001 1.67382956e-001 2.59669870e-001
      2.59669870e-001 2.54912406e-001 2.04558596e-001 5.06573208e-002
      2.30874211e-001 8.19947347e-002 1.01143442e-001 1.25778735e-001
      2.30874211e-001 1.70998767e-001 7.04992265e-002 1.81398153e-001
      1.75291330e-001 1.36467069e-001 4.63195220e-002 2.59114187e-002
      8.18333477e-002 1.38334423e-001 1.88118592e-001 2.30874211e-001
      2.30874211e-001 2.30874211e-001 1.24250442e-001 1.38209119e-001
      1.50820881e-001 2.30874211e-001 2.30874211e-001 2.27511719e-001
      1.19222946e-001 1.56445056e-001 6.79335892e-002 1.01141900e-001
      2.18638748e-001 1.02312751e-001 1.91448808e-001 2.30874211e-001
      2.30874211e-001 1.01086363e-001 1.13255613e-001 1.55361921e-001
      1.07417151e-001 4.06507887e-002 1.21835349e-002 5.69044054e-002
      5.05175591e-002 1.69473335e-001 2.37359166e-001 2.14515254e-001
      1.55343845e-001 2.37359166e-001 7.82061964e-002 3.69902328e-002
      2.01139212e-001 6.43174276e-002 1.27023384e-001 2.37137526e-001
      2.37359166e-001 2.37359166e-001 1.10719621e-001 1.22021995e-001
      8.22990164e-002 1.84246883e-001 2.00146645e-001 2.37359166e-001
      1.31174982e-001 1.99717566e-001 1.38000146e-001 1.47617176e-001
      8.74327198e-002 9.57848504e-002 1.76424906e-001 1.28074959e-001
      2.37359166e-001 2.37359166e-001 2.37359166e-001 1.85100570e-001
      8.79078954e-002 4.76594307e-002 4.68466207e-002 7.23869503e-002
      1.74523070e-001 1.48550510e-001 1.19084440e-001 7.28421360e-002
      6.03062287e-002 1.82065696e-001 1.52756348e-001 1.41991794e-001
      1.70144111e-001 2.42511302e-001 2.42511302e-001 2.42511302e-001
      2.42511302e-001 1.45360589e-001 1.02075703e-001 7.48731866e-002
      1.30368248e-001 1.79620132e-001 2.42511302e-001 9.53875631e-002
      6.05290681e-002 1.24414206e-001 5.71483821e-002 1.48071900e-001
      1.75105646e-001 2.42511302e-001 2.42511302e-001 2.42511302e-001
      2.42511302e-001 1.13730431e-001 2.42511302e-001 1.65344864e-001
      2.04826012e-001 1.84323251e-001 1.14896625e-001 1.31014064e-001
      2.07585633e-001 9.09185037e-002 1.54378667e-001 1.62370846e-001
      1.23465538e-001 1.13674641e-001 1.88353077e-001 1.53438643e-001
      1.91268757e-001 2.25015521e-001 2.25015521e-001 1.23889737e-001
      6.58566058e-002 1.02665164e-001 1.04700916e-001 1.15790591e-001
      1.52092859e-001 1.80056736e-001 2.09657282e-001 2.25015521e-001
      1.54929847e-001 2.17896804e-001 1.39677376e-001 9.64777023e-002
      1.12828113e-001 1.76966339e-001 2.25015521e-001 2.25015521e-001
      2.25015521e-001 2.25015521e-001 1.05038486e-001 4.71467264e-002
      4.79055643e-002 1.19525969e-001 9.53237414e-002 1.97743371e-001
      2.59275198e-001 2.59275198e-001 6.36569411e-002 1.00934625e-001
      6.37703165e-002 5.93005531e-002 1.45461202e-001 1.02189705e-001
      1.90189824e-001 2.59275198e-001 2.59275198e-001 1.29970476e-001
      2.20350340e-001 3.91411185e-002 5.60738966e-002 1.26328856e-001
      1.30344376e-001 2.59275198e-001 2.59275198e-001 1.92640215e-001
      1.11579105e-001 9.37282443e-002 3.78546976e-002 4.90388349e-002
      2.22610667e-001 1.58767641e-001 2.59275198e-001 2.59275198e-001
      1.82551280e-001 7.85733908e-002 1.53866202e-001 4.54036705e-002
      5.22442535e-002 3.30384448e-002 4.13459279e-002 8.11048299e-002
      1.73532441e-001 7.80011117e-002 1.58123747e-001 2.74602711e-001
      9.25453231e-002 3.78645211e-002 6.06935546e-002 1.59954011e-001
      2.62161374e-001 2.74602711e-001 2.74602711e-001 2.15716839e-001
      1.52615175e-001 6.54351488e-002 4.62763309e-002 1.46791767e-002
      6.26589544e-003 2.76231114e-002 5.12704626e-002 5.52437901e-002
      2.74602711e-001 2.74602711e-001 1.87793672e-001 1.36449546e-001
      7.73441866e-002 9.69650596e-002 1.19608440e-001 1.13689609e-001
      1.82345763e-001 2.74602711e-001 2.74602711e-001 2.74602711e-001
      4.82877716e-002 6.75873533e-002 1.77930862e-001 2.30502084e-001
      2.30502084e-001 2.30502084e-001 1.61318108e-001 9.22772288e-002
      3.85711417e-002 9.45257768e-002 1.08561106e-001 1.87807441e-001
      2.30502084e-001 1.81260824e-001 2.30502084e-001 1.38947293e-001
      5.89041002e-002 4.00431342e-002 2.30502084e-001 1.64701030e-001
      1.55887455e-001 2.12000281e-001 1.25839576e-001 1.54451460e-001
      1.42827660e-001 1.66444406e-001 2.30502084e-001 2.30502084e-001
      2.30502084e-001 2.30502084e-001 1.62916139e-001 1.20237030e-001
      1.94105834e-001 5.24709262e-002 3.96451727e-002 1.06794149e-001
      1.12320848e-001 1.51117966e-001 2.11416230e-001 2.37617612e-001
      2.54629314e-001 1.60041153e-001 8.72200578e-002 7.63463676e-002
      6.60228282e-002 1.25595286e-001 2.54629314e-001 2.54629314e-001
      1.67509362e-001 2.23165885e-001 5.73166721e-002 3.84686217e-002
      9.13313180e-002 7.40411282e-002 2.54629314e-001 2.42672414e-001
      2.39791021e-001 1.18097380e-001 1.30058810e-001 1.69227540e-001
      4.33390588e-002 2.31512189e-002 1.22716390e-001 2.54629314e-001
      2.54629314e-001 2.54629314e-001 1.31073207e-001 1.03376180e-001
      4.63916659e-002 4.57102247e-002 2.10745502e-002 1.59504741e-001</_>
    <_>
      2.60908186e-001 2.60908186e-001 1.32702067e-001 3.26120146e-002
      5.21941967e-002 2.46223118e-002 1.72336772e-002 1.90123990e-002
      1.98575571e-001 2.60908186e-001 1.71350524e-001 1.77944228e-001
      1.45344406e-001 1.46851808e-001 1.22482412e-001 5.14471829e-002
      7.28445649e-002 2.54806995e-001 2.36278340e-001 2.25727648e-001
      9.38097909e-002 5.37642464e-002 2.04505965e-001 1.00347228e-001
      9.92239490e-002 6.14659861e-002 9.58020613e-002 1.34481519e-001
      1.25648305e-001 1.55340001e-001 2.52851188e-001 2.60908186e-001
      2.60908186e-001 2.58154869e-001 1.26411289e-001 7.48959854e-002
      2.36296043e-001 9.92314219e-002 1.28427476e-001 9.96354967e-002
      1.84356973e-001 2.04125196e-001 9.15691629e-002 1.23194136e-001
      2.14473933e-001 1.43748805e-001 3.92925739e-002 4.60618958e-002
      6.21859059e-002 1.21252023e-001 1.87719733e-001 2.36296043e-001
      2.36296043e-001 2.36296043e-001 1.34904817e-001 1.14011586e-001
      1.08959191e-001 2.31222853e-001 2.36296043e-001 2.36296043e-001
      1.24263525e-001 9.80898142e-002 8.05658326e-002 2.19465956e-001
      1.21276915e-001 1.13090500e-001 2.32960403e-001 2.36296043e-001
      2.18506619e-001 1.48863509e-001 9.45448875e-002 1.01499133e-001
      7.31724724e-002 2.06877589e-002 2.52279062e-002 6.14428408e-002
      4.57425565e-002 1.32137090e-001 2.29762629e-001 2.29762629e-001
      1.84773847e-001 2.29762629e-001 8.66069794e-002 2.09861979e-001
      9.96245071e-002 3.33256833e-002 7.88610578e-002 2.29762629e-001
      2.29762629e-001 2.29762629e-001 1.45854831e-001 7.33409375e-002
      8.06567967e-002 2.29762629e-001 1.83824688e-001 2.29762629e-001
      1.51264042e-001 1.53015420e-001 1.23837717e-001 1.47861853e-001
      8.35792050e-002 1.07435577e-001 2.29762629e-001 1.74830213e-001
      2.03677937e-001 2.08081156e-001 2.29762629e-001 2.29762629e-001
      8.82202312e-002 6.46075085e-002 2.84570567e-002 6.08438253e-002
      1.81531847e-001 1.49549693e-001 1.60556987e-001 8.34342018e-002
      5.61836883e-002 1.63198933e-001 1.62005216e-001 6.15572371e-002
      1.65868863e-001 2.48167351e-001 2.48167351e-001 2.48167351e-001
      2.15288296e-001 1.15766525e-001 8.95702988e-002 1.08617023e-001
      1.09910756e-001 1.80154517e-001 2.10178614e-001 9.02067497e-002
      6.49769828e-002 6.86305463e-002 6.60338476e-002 2.22876206e-001
      2.08045676e-001 2.48167351e-001 2.48167351e-001 2.48167351e-001
      2.48167351e-001 1.61044538e-001 2.11044133e-001 1.46290764e-001
      1.82346582e-001 1.75723508e-001 5.50612435e-002 1.44579083e-001
      2.38898978e-001 1.34348497e-001 1.05170771e-001 1.21565305e-001
      1.19405977e-001 2.11171433e-001 1.49243057e-001 1.20333791e-001
      2.38898978e-001 2.38898978e-001 2.09802464e-001 3.99945304e-002
      1.02325693e-001 1.00766830e-001 1.55321613e-001 1.22041859e-001
      9.88319293e-002 1.27891168e-001 2.38898978e-001 2.38898978e-001
      9.87124369e-002 2.24276662e-001 1.45534039e-001 1.31924555e-001
      7.69589618e-002 1.16479032e-001 2.38898978e-001 2.38898978e-001
      2.38898978e-001 9.11731794e-002 1.85833395e-001 1.45340800e-001
      1.22764632e-001 5.59670292e-002 1.00847639e-001 2.59690672e-001
      2.59690672e-001 2.59690672e-001 3.39985304e-002 5.96652888e-002
      6.08274937e-002 9.90603939e-002 5.19154668e-002 8.36655349e-002
      2.59690672e-001 2.59690672e-001 2.36380294e-001 7.87968263e-002
      9.42864567e-002 8.40023533e-002 9.79839489e-002 4.31491062e-002
      1.25123903e-001 2.59690672e-001 2.59690672e-001 2.59690672e-001
      1.21934235e-001 6.22737557e-002 1.05053946e-001 1.00874610e-001
      6.40747398e-002 1.22614339e-001 2.59690672e-001 2.59690672e-001
      2.59690672e-001 1.48287594e-001 2.19265502e-002 1.12062834e-001
      5.31607680e-002 4.76659052e-002 5.39846122e-002 7.87668526e-002
      1.64573789e-001 6.01296052e-002 1.43764108e-001 2.61461139e-001
      1.01363704e-001 5.95060214e-002 6.90756068e-002 1.67185992e-001
      2.48447657e-001 2.70218134e-001 2.70218134e-001 1.92551762e-001
      1.17049187e-001 5.46786115e-002 3.43803577e-002 1.29799386e-002
      7.53674936e-003 2.95129847e-002 6.38229176e-002 4.40803170e-002
      2.70218134e-001 2.70218134e-001 2.12465838e-001 9.40536410e-002
      5.62335141e-002 1.22510612e-001 1.70482680e-001 1.80932164e-001
      2.18957946e-001 2.70218134e-001 2.70218134e-001 2.70218134e-001
      5.00879772e-002 5.05214073e-002 1.56306654e-001 2.29763657e-001
      2.29763657e-001 2.29763657e-001 1.14504650e-001 1.06792875e-001
      3.74650024e-002 8.73452798e-002 4.21201363e-002 1.29720345e-001
      2.29763657e-001 2.29763657e-001 2.29763657e-001 1.27466977e-001
      8.63944888e-002 7.13514760e-002 2.29763657e-001 1.09896667e-001
      2.06910640e-001 2.29763657e-001 1.81516945e-001 1.65251851e-001
      1.18491448e-001 1.41833037e-001 2.00170711e-001 2.29763657e-001
      2.15653121e-001 2.29763657e-001 2.29763657e-001 1.91085011e-001
      1.30852789e-001 7.28972554e-002 3.34105976e-002 1.03001773e-001
      1.00196362e-001 1.14475220e-001 1.53754175e-001 2.06893265e-001
      2.40025312e-001 2.40025312e-001 1.42072812e-001 6.73555732e-002
      1.00051709e-001 1.20568886e-001 2.40025312e-001 2.40025312e-001
      1.68381050e-001 2.40025312e-001 1.55015960e-001 1.19251460e-001
      4.87047657e-002 1.29074857e-001 2.40025312e-001 2.37865195e-001
      2.01751709e-001 1.30092114e-001 2.10293666e-001 1.10659689e-001
      5.72625883e-002 5.64985573e-002 1.11525379e-001 2.40025312e-001
      2.40025312e-001 2.40025312e-001 9.95710492e-002 1.61134809e-001
      2.59571541e-002 1.85631569e-002 6.18982390e-002 1.55834317e-001</_>
    <_>
      2.54591823e-001 2.54591823e-001 1.48278445e-001 2.11199746e-002
      6.23741262e-002 2.30486710e-002 2.25932226e-002 1.05517870e-002
      2.08979800e-001 2.54591823e-001 2.10440144e-001 1.93944797e-001
      1.12116858e-001 1.72230452e-001 1.23723023e-001 5.43088280e-002
      5.76684959e-002 2.54591823e-001 2.29584932e-001 2.13364229e-001
      1.10607557e-001 3.54021862e-002 2.16879889e-001 9.79899839e-002
      9.68070403e-002 4.56759632e-002 1.32783517e-001 1.44640133e-001
      1.48611620e-001 1.90817833e-001 1.65196925e-001 2.54591823e-001
      2.54591823e-001 2.54591823e-001 8.74757767e-002 1.22732893e-001
      2.34629437e-001 9.52705517e-002 1.45751670e-001 8.74856189e-002
      2.06135795e-001 2.09419549e-001 9.40080136e-002 1.23276293e-001
      2.34629437e-001 1.31590247e-001 3.06416433e-002 4.77419645e-002
      8.22988674e-002 1.30158797e-001 2.04181567e-001 2.34629437e-001
      2.00368851e-001 2.34629437e-001 1.40434489e-001 1.45839080e-001
      1.39620408e-001 2.02300191e-001 2.34629437e-001 2.34629437e-001
      1.42775342e-001 9.82440785e-002 1.01565368e-001 1.07551336e-001
      1.71651408e-001 1.26758575e-001 1.61921620e-001 2.34629437e-001
      2.34629437e-001 1.39163867e-001 1.01095229e-001 1.67741001e-001
      1.03566587e-001 2.73058377e-002 3.22376266e-002 6.28447905e-002
      3.08710597e-002 1.51203692e-001 2.34483793e-001 1.99304044e-001
      1.94387063e-001 2.34483793e-001 1.55657634e-001 1.35277122e-001
      1.37118846e-001 8.82868394e-002 5.09244874e-002 2.06707239e-001
      2.34483793e-001 2.34483793e-001 8.52262825e-002 1.28267705e-001
      1.01241298e-001 9.48315784e-002 2.08805725e-001 2.34483793e-001
      2.21719474e-001 1.43225059e-001 1.75216109e-001 1.81042627e-001
      1.58688262e-001 9.13030356e-002 1.02097161e-001 1.81532890e-001
      1.70174345e-001 2.34483793e-001 2.34483793e-001 2.34483793e-001
      8.31131712e-002 5.07016405e-002 3.87387797e-002 6.10777885e-002
      1.88279167e-001 1.48236826e-001 1.37578860e-001 7.41370469e-002
      8.49748328e-002 1.80105075e-001 1.84774533e-001 1.06970988e-001
      1.42134383e-001 2.46820927e-001 2.46820927e-001 2.46820927e-001
      2.20301718e-001 1.20450146e-001 7.98588917e-002 7.61751384e-002
      1.39063403e-001 1.67341650e-001 2.27357134e-001 9.53771099e-002
      7.34581128e-002 1.00627646e-001 8.20320994e-002 1.53131410e-001
      2.06760749e-001 2.46820927e-001 2.46820927e-001 2.46820927e-001
      2.46820927e-001 1.43540904e-001 2.46820927e-001 1.25541866e-001
      1.96314961e-001 2.02894837e-001 1.07161194e-001 1.43521845e-001
      2.00780347e-001 1.65364146e-001 1.39959827e-001 1.63144678e-001
      8.82687420e-002 1.06120385e-001 1.72679126e-001 1.53015405e-001
      2.01472163e-001 2.27976903e-001 2.27976903e-001 9.48487595e-002
      8.65925774e-002 1.02300450e-001 1.25750974e-001 1.20113552e-001
      1.58315867e-001 1.70183539e-001 2.27976903e-001 2.10721329e-001
      1.33491337e-001 2.27976903e-001 1.07153364e-001 9.76452604e-002
      1.06652908e-001 1.53887212e-001 2.27976903e-001 2.27976903e-001
      2.27976903e-001 2.16068119e-001 1.27195954e-001 5.47127761e-002
      6.17834181e-002 1.13882035e-001 7.49327019e-002 1.48298100e-001
      2.52478153e-001 2.52478153e-001 9.71159860e-002 6.57375082e-002
      9.67544988e-002 1.03493311e-001 1.41314700e-001 5.02780154e-002
      1.25412554e-001 2.52478153e-001 2.52478153e-001 2.03777030e-001
      1.35917261e-001 1.18243836e-001 8.24863091e-002 9.01572481e-002
      8.86638612e-002 2.52478153e-001 2.52478153e-001 2.52478153e-001
      1.29807413e-001 1.11596718e-001 1.03969723e-001 1.18849523e-001
      1.26933545e-001 1.29589111e-001 2.17103884e-001 2.52478153e-001
      2.52478153e-001 1.54647097e-001 1.33144230e-001 1.86090976e-001
      4.80628945e-002 2.90635321e-002 5.87538369e-002 6.70688301e-002
      1.53669760e-001 6.27770647e-002 1.41815916e-001 2.73249000e-001
      1.08971186e-001 2.21758522e-002 5.52131981e-002 1.83368951e-001
      2.59277642e-001 2.73249000e-001 2.73249000e-001 1.88792974e-001
      1.50881559e-001 6.11772537e-002 3.38096544e-002 8.95053428e-003
      2.83827167e-002 1.57305580e-002 5.25415204e-002 5.28220125e-002
      2.73249000e-001 2.73249000e-001 1.76991522e-001 1.01452090e-001
      7.72385299e-002 1.23425581e-001 1.18900806e-001 1.57259405e-001
      2.30758399e-001 2.73249000e-001 2.73249000e-001 2.73249000e-001
      3.40087339e-002 5.81090562e-002 1.65999651e-001 2.27600411e-001
      2.27600411e-001 2.27600411e-001 1.41518265e-001 1.06606022e-001
      3.04128882e-002 6.80758059e-002 1.01052620e-001 1.62874863e-001
      2.27600411e-001 2.00366586e-001 2.27600411e-001 1.61844179e-001
      8.04151520e-002 2.63111163e-002 2.27600411e-001 1.59683064e-001
      1.60916045e-001 2.27600411e-001 1.79276720e-001 1.64716825e-001
      1.60455972e-001 1.29823864e-001 2.27600411e-001 2.27600411e-001
      2.27600411e-001 2.27600411e-001 1.80324510e-001 1.21850304e-001
      1.59366548e-001 9.70809981e-002 6.16722070e-002 9.67942253e-002
      9.12349746e-002 1.19945563e-001 2.06769750e-001 2.50828564e-001
      2.28972197e-001 1.71660274e-001 1.31814390e-001 1.43775359e-001
      7.70071298e-002 1.37513652e-001 2.42989421e-001 2.50828564e-001
      1.86794847e-001 1.92697257e-001 8.48229453e-002 1.14946768e-001
      1.23409197e-001 1.15748517e-001 2.50828564e-001 2.03826144e-001
      2.50828564e-001 1.45896852e-001 8.74303281e-002 1.38972059e-001
      9.16507021e-002 6.92137554e-002 1.04098275e-001 2.50828564e-001
      2.50828564e-001 2.50828564e-001 1.21295430e-001 9.40013751e-002
      4.07445431e-002 4.76047695e-002 5.53161241e-002 1.49627000e-001</_>
    <_>
      2.46858358e-001 2.46858358e-001 2.46858358e-001 1.60584956e-001
      9.27821249e-002 1.22843301e-002 1.01875030e-002 2.01974250e-002
      1.01613246e-001 2.46858358e-001 2.46858358e-001 2.20624268e-001
      1.48212835e-001 1.71301380e-001 8.55939910e-002 4.03735265e-002
      4.94854413e-002 1.47226110e-001 2.10065708e-001 8.95408019e-002
      2.46858358e-001 1.75278306e-001 1.93347022e-001 1.01184271e-001
      4.24492136e-002 4.44761440e-002 1.20775111e-001 1.19380705e-001
      1.51362583e-001 2.02673867e-001 2.46858358e-001 2.46858358e-001
      2.46858358e-001 1.06000938e-001 1.43284276e-001 1.08485609e-001
      2.66367018e-001 1.98412031e-001 4.60950695e-002 8.24686587e-002
      2.29482844e-001 1.62163302e-001 9.96272266e-002 1.35334417e-001
      2.66367018e-001 2.08011687e-001 2.87180208e-002 4.68967184e-002
      8.57893378e-002 1.24621630e-001 1.02115363e-001 1.72121122e-001
      1.38102025e-001 2.66367018e-001 8.72165188e-002 1.31361723e-001
      1.34689853e-001 2.41432026e-001 2.66367018e-001 2.66367018e-001
      7.94249773e-002 1.20775737e-001 1.67929217e-001 1.70352727e-001
      5.62435985e-002 1.12288989e-001 2.16116980e-001 2.66367018e-001
      1.24224849e-001 1.44442081e-001 4.59374227e-002 8.68023261e-002
      4.52538356e-002 5.98897748e-002 7.11112842e-002 1.14722997e-001
      8.75052735e-002 7.92541578e-002 2.70513386e-001 2.06752926e-001
      1.25463262e-001 7.35289007e-002 6.94100484e-002 4.85065170e-002
      7.98477009e-002 7.28908330e-002 7.60814920e-002 2.70513386e-001
      2.70513386e-001 6.77618161e-002 2.13020325e-001 6.82417229e-002
      1.75438762e-001 1.94590881e-001 1.66271627e-001 2.17194855e-001
      2.70513386e-001 2.37699866e-001 1.19455695e-001 1.24307141e-001
      4.95453365e-002 1.06809027e-001 7.34621137e-002 9.43079144e-002
      2.70513386e-001 2.70513386e-001 2.70513386e-001 2.15067014e-001
      9.37296674e-002 3.14380750e-002 4.97724488e-002 5.88179417e-002
      1.34875357e-001 1.41420662e-001 7.54517540e-002 1.09714709e-001
      6.81115091e-002 1.89432338e-001 2.01257855e-001 1.34079531e-001
      1.87133074e-001 2.42059737e-001 2.43064091e-001 1.65708318e-001
      2.43064091e-001 2.41781279e-001 7.08137527e-002 1.22155428e-001
      9.44949463e-002 1.48039430e-001 1.71970651e-001 5.37325293e-002
      3.99553962e-002 8.19685534e-002 1.04098871e-001 2.43064091e-001
      2.43064091e-001 1.66825995e-001 2.43064091e-001 2.43064091e-001
      1.35373205e-001 1.61899745e-001 2.43064091e-001 2.43064091e-001
      1.04535624e-001 1.54008359e-001 1.41345620e-001 1.64615735e-001
      2.50040531e-001 1.36009648e-001 6.39531612e-002 1.11951821e-001
      1.54329926e-001 1.75411806e-001 5.03112301e-002 1.21231034e-001
      2.23451197e-001 2.50897974e-001 1.25360131e-001 2.09987894e-001
      4.02447768e-002 4.84211370e-002 1.61018342e-001 1.62654072e-001
      5.73106371e-002 1.72243059e-001 2.50897974e-001 1.22418970e-001
      1.77504420e-001 2.50897974e-001 2.18917862e-001 7.24845082e-002
      7.08253011e-002 2.06962034e-001 1.96330979e-001 2.50897974e-001
      1.51476637e-001 2.41813242e-001 8.85792598e-002 1.41911700e-001
      1.64282620e-001 4.75149751e-002 1.31183282e-001 2.01242402e-001
      2.24467203e-001 1.61993280e-001 1.94054484e-001 1.27052292e-001
      7.43506849e-002 9.63691473e-002 7.15228543e-002 1.03603639e-001
      1.85341641e-001 2.24467203e-001 2.20182642e-001 1.09185345e-001
      2.24467203e-001 1.10089146e-001 1.27376959e-001 1.80340156e-001
      2.24467203e-001 2.24467203e-001 2.24467203e-001 1.17307454e-001
      1.78270414e-001 1.19429857e-001 1.03813902e-001 1.53412223e-001
      2.24467203e-001 1.90857679e-001 2.24467203e-001 2.24467203e-001
      1.54878557e-001 7.68937469e-002 1.62303329e-001 6.49635941e-002
      7.25930780e-002 5.24072014e-002 4.15413715e-002 8.74574259e-002
      1.66569814e-001 8.91936794e-002 1.69193462e-001 2.41603613e-001
      1.90337449e-001 8.30426887e-002 1.68200329e-001 7.58349225e-002
      2.53707290e-001 2.53707290e-001 1.48878515e-001 2.02483580e-001
      2.43851975e-001 1.19273186e-001 9.23882797e-002 2.09192410e-002
      1.32112885e-002 2.30072569e-002 1.02637783e-001 1.32343084e-001
      2.53707290e-001 2.53707290e-001 2.30766118e-001 1.66028768e-001
      6.63542375e-002 3.76397409e-002 1.36217996e-001 1.64194897e-001
      1.51332662e-001 2.53707290e-001 2.53707290e-001 2.53707290e-001
      1.19476035e-001 1.51428789e-001 4.11916897e-002 2.66227484e-001
      2.66227484e-001 1.30321249e-001 1.35211781e-001 2.02654928e-001
      1.02500774e-001 4.50424738e-002 7.30809048e-002 8.88772383e-002
      1.07450500e-001 2.66227484e-001 1.20635733e-001 1.15027070e-001
      6.75923973e-002 1.08849920e-001 2.66227484e-001 1.35408178e-001
      5.61635084e-002 2.58262932e-001 2.66227484e-001 6.22750446e-002
      1.44834831e-001 1.93148494e-001 2.66227484e-001 2.46668622e-001
      8.77636671e-002 3.70270722e-002 1.02693833e-001 2.46045589e-001
      7.28445053e-002 7.08318725e-002 5.25663421e-002 2.66227484e-001
      1.14392877e-001 2.46381715e-001 2.02455401e-001 2.09623441e-001
      1.54571503e-001 1.13934524e-001 1.67366654e-001 9.75188091e-002
      1.10340104e-001 2.46381715e-001 2.46381715e-001 2.46381715e-001
      2.46381715e-001 1.02093823e-001 7.18731582e-002 7.35696331e-002
      7.46830106e-002 1.04004130e-001 1.40692413e-001 2.41644576e-001
      1.39604285e-001 1.16203718e-001 2.10376993e-001 7.07819387e-002
      8.92785713e-002 7.18922839e-002 9.71371680e-002 2.46381715e-001
      2.46381715e-001 2.46381715e-001 2.04660580e-001 1.76119193e-001
      5.48431575e-002 3.45544480e-002 3.01006325e-002 1.69971257e-001</_>
    <_>
      2.55009681e-001 2.55009681e-001 2.28533328e-001 1.42334312e-001
      2.19320342e-001 9.87089705e-003 1.37719307e-002 1.26718413e-002
      1.03626236e-001 2.55009681e-001 2.55009681e-001 2.13899642e-001
      1.20793015e-001 2.55009681e-001 5.03584407e-002 1.80212297e-002
      2.91231722e-002 1.27965271e-001 2.34085068e-001 1.62345394e-001
      8.92011076e-002 1.00068450e-001 2.55009681e-001 5.08807264e-002
      3.53669450e-002 4.22034152e-002 9.93977562e-002 9.79383662e-002
      2.31530398e-001 2.21995831e-001 1.57436922e-001 2.55009681e-001
      1.94383249e-001 9.25463885e-002 1.45387039e-001 1.03262462e-001
      2.69682765e-001 1.98796660e-001 6.67528808e-002 9.08403620e-002
      2.69682765e-001 6.75461143e-002 7.21521378e-002 8.71132687e-002
      2.69682765e-001 1.47475243e-001 5.01466468e-002 9.10769403e-002
      8.86751711e-002 1.96099401e-001 5.58690466e-002 1.27944186e-001
      1.28315762e-001 2.69682765e-001 1.10379726e-001 2.30201229e-001
      2.34129846e-001 2.36839071e-001 2.69682765e-001 1.56140074e-001
      7.69523606e-002 1.06768906e-001 1.50097102e-001 7.61612803e-002
      8.33364055e-002 2.22523615e-001 1.65817395e-001 2.69682765e-001
      1.09330080e-001 1.06816433e-001 4.57553566e-002 1.44859299e-001
      2.03385465e-002 4.54332232e-002 1.74071625e-001 7.04740435e-002
      1.06388032e-001 8.04069117e-002 1.72556162e-001 1.99894026e-001
      1.72197416e-001 3.56938764e-002 5.66449501e-002 1.26893923e-001
      6.96844310e-002 8.70098472e-002 8.36745873e-002 2.40995839e-001
      2.40995839e-001 1.59432724e-001 7.02240989e-002 7.48847201e-002
      2.40995839e-001 1.23784877e-001 2.40995839e-001 2.40995839e-001
      2.06497580e-001 1.53075084e-001 2.40995839e-001 4.77266125e-002
      1.26759425e-001 1.65074766e-001 6.13581873e-002 2.34862089e-001
      2.40995839e-001 2.40995839e-001 2.40995839e-001 2.40995839e-001
      7.61170760e-002 5.71828149e-002 1.60966646e-002 1.47757260e-002
      1.83082148e-001 4.34417762e-002 5.09927459e-002 9.43718851e-002
      4.18410227e-002 2.01978251e-001 2.35783815e-001 1.89648986e-001
      9.28834826e-002 2.54828602e-001 1.48778975e-001 1.56422511e-001
      2.54828602e-001 2.47306213e-001 8.78470168e-002 9.87729356e-002
      6.57027215e-002 5.19902036e-002 2.54828602e-001 3.34740356e-002
      6.22926205e-002 1.03595257e-001 1.11786544e-001 2.54828602e-001
      2.54828602e-001 1.95565194e-001 1.66217580e-001 2.54828602e-001
      2.09033564e-001 2.00318739e-001 1.97716177e-001 2.43650988e-001
      1.47661000e-001 1.77785710e-001 1.68422893e-001 1.28744960e-001
      2.38012716e-001 8.14289823e-002 6.22381270e-002 1.28524348e-001
      1.74629405e-001 6.83087781e-002 5.14290966e-002 1.95019349e-001
      2.33424932e-001 2.38012716e-001 1.97588131e-001 1.72364205e-001
      4.19619568e-002 1.00530304e-001 2.23912477e-001 1.80756778e-001
      6.27873167e-002 7.90939033e-002 2.38012716e-001 2.29692087e-001
      2.15372473e-001 1.21944316e-001 2.03533307e-001 1.24642842e-001
      3.23625021e-002 1.23579599e-001 2.38012716e-001 2.38012716e-001
      2.38012716e-001 1.59866214e-001 7.55941272e-002 9.91292149e-002
      4.96968925e-002 4.06355783e-002 1.90599993e-001 1.98537961e-001
      2.22047403e-001 2.22047403e-001 2.08308190e-001 5.46292216e-002
      1.24298789e-001 2.52349451e-002 1.55645624e-001 1.78921148e-001
      1.11524984e-001 2.22047403e-001 2.22047403e-001 1.92179814e-001
      1.13440871e-001 1.18476771e-001 1.37177944e-001 6.15507290e-002
      2.22047403e-001 2.22047403e-001 2.22047403e-001 2.22047403e-001
      1.46429494e-001 7.45422691e-002 7.31040761e-002 1.07224092e-001
      1.74135000e-001 2.22047403e-001 2.22047403e-001 2.22047403e-001
      1.40122280e-001 1.89344063e-001 1.53931990e-001 6.80503994e-002
      1.01008169e-001 2.98009776e-002 2.78520398e-002 3.24433669e-002
      2.33241990e-001 4.61669229e-002 1.68222919e-001 2.60075778e-001
      2.05712467e-001 9.92868692e-002 1.12583145e-001 9.88889933e-002
      1.14465877e-001 2.60075778e-001 1.46617904e-001 1.74731717e-001
      2.60075778e-001 1.27664804e-001 1.14060014e-001 2.64991336e-002
      1.49334148e-002 1.91888679e-002 1.23669036e-001 1.06566317e-001
      2.60075778e-001 2.60075778e-001 2.48131379e-001 1.71295658e-001
      3.71510200e-002 6.56962320e-002 3.96402963e-002 2.19131410e-001
      1.23794921e-001 2.60075778e-001 2.60075778e-001 2.60075778e-001
      1.61276430e-001 1.52241677e-001 6.02844469e-002 1.00248210e-001
      2.82967061e-001 1.98336601e-001 1.69768959e-001 1.32089376e-001
      1.25485986e-001 1.22341774e-001 5.53664416e-002 4.05345187e-002
      1.00220963e-001 2.67787188e-001 1.89966798e-001 9.58737209e-002
      6.76103681e-002 8.62288550e-002 2.82967061e-001 9.66935232e-002
      1.33209631e-001 6.65676743e-002 2.68864274e-001 7.72048831e-002
      9.79041979e-002 2.40819931e-001 2.82967061e-001 2.82967061e-001
      6.91756904e-002 9.81407091e-002 5.26586734e-002 2.58190602e-001
      7.67429397e-002 6.73424974e-002 4.74315025e-002 2.82967061e-001
      2.04439655e-001 1.25091866e-001 2.05445603e-001 2.22411081e-001
      1.98370203e-001 1.68999627e-001 1.19610496e-001 9.47582349e-002
      1.13010988e-001 2.32272968e-001 2.32272968e-001 2.32272968e-001
      2.32272968e-001 2.32272968e-001 6.51935712e-002 1.16054729e-001
      9.89379808e-002 1.04864962e-001 2.13191137e-001 1.26913846e-001
      1.47506475e-001 6.64361417e-002 2.32272968e-001 6.56330884e-002
      9.05600414e-002 8.47999603e-002 1.63423911e-001 2.32272968e-001
      2.32272968e-001 2.32272968e-001 1.20316029e-001 2.24767908e-001
      6.59175441e-002 4.28151712e-002 5.32181785e-002 1.11296892e-001</_>
    <_>
      2.17050284e-001 2.36649677e-001 2.36649677e-001 2.06432834e-001
      1.38789952e-001 1.85144134e-002 1.79972313e-002 2.47710962e-002
      1.38864279e-001 2.36649677e-001 2.36649677e-001 2.06893846e-001
      2.31015801e-001 2.36649677e-001 6.39336705e-002 2.57282946e-002
      6.48985952e-002 1.34357795e-001 1.64782941e-001 1.42306715e-001
      1.38858870e-001 1.48246720e-001 1.62694484e-001 1.22398958e-001
      3.10500581e-002 5.68352528e-002 1.15348689e-001 7.44003728e-002
      2.36649677e-001 1.82274446e-001 2.36649677e-001 2.36649677e-001
      2.36649677e-001 6.12961203e-002 2.08350733e-001 8.56046081e-002
      2.70172119e-001 2.05909967e-001 4.91908491e-002 1.15396500e-001
      2.70172119e-001 6.93399310e-002 5.65382168e-002 1.33004114e-001
      2.70172119e-001 1.89701319e-001 4.83210012e-002 6.04985021e-002
      9.13189277e-002 2.04424441e-001 7.67651275e-002 9.12211016e-002
      1.13106027e-001 2.70172119e-001 7.46396333e-002 2.67224103e-001
      1.81506991e-001 1.74792722e-001 2.70172119e-001 2.11742312e-001
      4.81649972e-002 1.88370481e-001 1.03521898e-001 1.13643430e-001
      1.35639727e-001 1.68162540e-001 1.53590664e-001 2.70172119e-001
      1.12274371e-001 1.01192713e-001 7.96346068e-002 1.00967236e-001
      6.23985529e-002 7.15393350e-002 1.08336285e-001 9.66297910e-002
      1.01625085e-001 1.37014106e-001 1.76452219e-001 1.84236139e-001
      1.24931253e-001 4.88980152e-002 6.24535382e-002 8.03507790e-002
      7.51715228e-002 6.58603534e-002 1.28975213e-001 2.45211676e-001
      2.45211676e-001 1.17244929e-001 1.44542888e-001 1.34466976e-001
      1.79547369e-001 1.70471519e-001 2.45211676e-001 2.45211676e-001
      1.82653069e-001 2.04674259e-001 1.98265299e-001 6.90448359e-002
      1.04687542e-001 1.17042631e-001 1.38350666e-001 2.45211676e-001
      2.45211676e-001 2.45211676e-001 2.45211676e-001 2.45211676e-001
      6.31685257e-002 5.21425940e-002 1.47886770e-002 4.11870331e-002
      8.25368911e-002 1.32277802e-001 3.50965001e-002 1.02637284e-001
      5.30752055e-002 2.19721824e-001 2.42154643e-001 1.50087163e-001
      1.03537865e-001 2.23885730e-001 2.42154643e-001 8.01735893e-002
      2.42154643e-001 2.42154643e-001 8.19819123e-002 1.21683531e-001
      8.15246478e-002 1.73434615e-001 1.64100289e-001 8.43730569e-002
      4.55062613e-002 1.01398036e-001 1.20575882e-001 2.42154643e-001
      2.42154643e-001 1.94118559e-001 2.42154643e-001 2.42154643e-001
      2.42154643e-001 1.84864163e-001 1.85871571e-001 2.42154643e-001
      1.55965164e-001 2.02059075e-001 1.43433839e-001 7.53313303e-002
      2.53871053e-001 1.31136596e-001 3.59742157e-002 1.42449692e-001
      1.60865471e-001 6.90849572e-002 9.42075998e-002 2.36651793e-001
      1.53352171e-001 2.53871053e-001 1.24920957e-001 2.35078365e-001
      8.39945823e-002 7.05091953e-002 2.11651996e-001 1.53729081e-001
      6.72194362e-002 9.21030045e-002 2.53871053e-001 2.07894057e-001
      1.88336983e-001 1.38715029e-001 1.69355974e-001 5.95450625e-002
      1.45504206e-001 2.04066753e-001 1.90017343e-001 2.53871053e-001
      1.33016944e-001 2.53871053e-001 1.14637144e-001 4.17062417e-002
      4.86359969e-002 8.82170871e-002 1.92970335e-001 1.67530641e-001
      2.23241284e-001 1.64640561e-001 2.10573927e-001 1.21604308e-001
      8.64704028e-002 1.60160270e-002 1.42346621e-001 1.30566269e-001
      1.85142770e-001 2.23241284e-001 2.13816077e-001 1.30947039e-001
      1.77259758e-001 1.24048166e-001 7.92806000e-002 2.23241284e-001
      2.23241284e-001 2.20831841e-001 2.23241284e-001 1.26132041e-001
      1.91304639e-001 1.10683642e-001 5.09509295e-002 9.17878449e-002
      2.23241284e-001 2.00288728e-001 2.23241284e-001 2.23241284e-001
      1.25556841e-001 1.12314835e-001 2.09504724e-001 7.19392672e-002
      1.05321646e-001 4.38322537e-002 3.22507359e-002 7.87322819e-002
      1.22748010e-001 1.21006094e-001 1.62552744e-001 2.52786189e-001
      1.91976011e-001 1.03962697e-001 1.11590199e-001 8.89245048e-002
      2.00225547e-001 2.52786189e-001 2.52786189e-001 2.07450017e-001
      2.10690722e-001 1.48920357e-001 1.24763988e-001 4.03717235e-002
      1.22303078e-002 2.02274490e-002 6.09627962e-002 1.49725810e-001
      2.52786189e-001 2.52786189e-001 2.29760826e-001 1.84790626e-001
      4.07743417e-002 5.77614009e-002 7.35325590e-002 1.07663788e-001
      1.98344335e-001 2.52786189e-001 2.52786189e-001 2.52786189e-001
      1.34679988e-001 1.18377291e-001 6.88770115e-002 1.33420497e-001
      2.96349317e-001 2.19678327e-001 1.72490835e-001 9.96756703e-002
      1.29503086e-001 8.61583054e-002 8.93028378e-002 5.55572398e-002
      7.19603226e-002 2.96349317e-001 1.31153122e-001 1.38564244e-001
      8.57035890e-002 5.18982746e-002 2.96349317e-001 9.82215628e-002
      1.21516988e-001 1.20658994e-001 2.50196874e-001 1.14584312e-001
      8.72561261e-002 2.00993583e-001 2.96349317e-001 2.66465873e-001
      7.39759356e-002 9.03191641e-002 6.70885667e-002 2.52812833e-001
      7.21525624e-002 5.75093143e-002 6.42757267e-002 2.96349317e-001
      1.58360794e-001 2.35210940e-001 1.55754626e-001 1.78623930e-001
      2.32158020e-001 1.06782965e-001 1.59946397e-001 1.25926241e-001
      8.40160251e-002 2.29019448e-001 2.35210940e-001 2.35210940e-001
      2.35210940e-001 2.35210940e-001 4.35834341e-002 8.30182657e-002
      1.21223986e-001 9.85328704e-002 1.54021084e-001 1.59341991e-001
      1.47206053e-001 6.04976043e-002 2.35210940e-001 6.81219026e-002
      8.61955956e-002 1.12141281e-001 1.73910052e-001 2.35210940e-001
      2.35210940e-001 2.35210940e-001 1.28131703e-001 2.25217640e-001
      6.12543374e-002 3.33809629e-002 7.32509792e-002 1.11074932e-001</_>
    <_>
      2.78383017e-001 2.78383017e-001 7.32875839e-002 5.33380844e-002
      6.38683066e-002 1.00213196e-002 4.20803670e-003 4.39239247e-003
      1.68611646e-001 2.78383017e-001 2.78383017e-001 1.03983320e-001
      1.25241235e-001 1.52945533e-001 9.58195254e-002 1.61360607e-001
      8.38511735e-002 1.91981211e-001 1.99979231e-001 9.04740319e-002
      6.98300451e-002 6.63597360e-002 2.25356147e-001 7.80927166e-002
      4.18918803e-002 2.42662290e-003 8.16314742e-002 1.04890823e-001
      1.56152114e-001 2.31757820e-001 2.53922403e-001 2.78383017e-001
      2.78383017e-001 2.78383017e-001 8.20747539e-002 4.24682349e-002
      2.27778748e-001 1.81882262e-001 4.33057696e-002 6.49709105e-002
      1.59709305e-001 1.34578004e-001 1.97468683e-001 1.11289054e-001
      2.27183536e-001 2.23996311e-001 7.69738853e-002 7.70834088e-002
      8.39404166e-002 1.53755292e-001 1.21473365e-001 2.21461594e-001
      1.16076984e-001 2.27778748e-001 3.95148657e-002 9.73701626e-002
      2.05298960e-001 2.27778748e-001 2.27778748e-001 2.27778748e-001
      2.27778748e-001 8.54065791e-002 3.68356258e-002 8.11062902e-002
      1.48864716e-001 2.24638715e-001 1.59862578e-001 2.27778748e-001
      2.27778748e-001 2.10128754e-001 1.01999216e-001 7.55722895e-002
      1.89740673e-001 8.05810615e-002 6.11481965e-002 7.00497329e-002
      8.48802105e-002 7.79174864e-002 2.23461449e-001 2.39111736e-001
      2.60756046e-001 1.80449203e-001 4.87252325e-002 3.13354470e-002
      4.08788882e-002 2.23683361e-002 9.59768146e-002 2.60756046e-001
      2.60756046e-001 2.15646565e-001 1.13722876e-001 1.46383584e-001
      1.24593124e-001 1.33313581e-001 1.13052875e-001 2.39187777e-001
      2.60756046e-001 2.11368248e-001 1.13200925e-001 6.93928301e-002
      3.78145017e-002 3.06738932e-002 7.02144057e-002 1.19959652e-001
      2.56839067e-001 2.60756046e-001 2.60756046e-001 1.91019759e-001
      8.44294392e-003 1.49955007e-003 2.71566752e-002 2.80682854e-002
      2.02936098e-001 1.05371714e-001 9.12011489e-002 1.08540049e-002
      6.99296640e-003 1.17830280e-002 1.18668139e-001 2.76707619e-001
      2.14218318e-001 2.76707619e-001 2.76707619e-001 2.76707619e-001
      1.68962836e-001 2.06976384e-002 1.94467660e-002 5.68858115e-003
      4.16129529e-002 9.26385373e-002 2.63297409e-001 6.58695921e-002
      7.59241283e-002 2.05193944e-002 1.85724255e-002 2.86033563e-002
      6.39810041e-002 2.76707619e-001 2.76707619e-001 2.76707619e-001
      2.52872199e-001 2.68031210e-001 2.73732007e-001 5.71259297e-002
      1.14575299e-002 7.63077587e-002 2.28652000e-001 1.86682805e-001
      2.29751736e-001 1.55328602e-001 1.47011876e-001 1.05851315e-001
      2.29170416e-002 3.93541604e-002 1.03658386e-001 1.54586509e-001
      1.91597238e-001 2.29751736e-001 2.29751736e-001 2.27802381e-001
      9.94496271e-002 5.09355702e-002 3.31402086e-002 3.89878452e-002
      1.71379492e-001 2.29751736e-001 2.29751736e-001 2.29751736e-001
      2.01744407e-001 1.95236072e-001 4.17758375e-002 1.04466379e-001
      8.31558406e-002 2.29196668e-001 2.29751736e-001 2.29751736e-001
      1.96179122e-001 2.16244891e-001 1.36099234e-001 2.99979039e-002
      5.54712601e-002 8.40475038e-002 1.26546800e-001 1.75246343e-001
      1.24588996e-001 2.31888220e-001 2.30224475e-001 1.42744124e-001
      7.25606233e-002 3.27731483e-002 2.80295331e-002 1.10136896e-001
      2.37764448e-001 2.39457369e-001 2.30962917e-001 2.39457369e-001
      1.30270883e-001 8.61016065e-002 1.55223519e-001 1.60633639e-001
      2.39457369e-001 2.16692612e-001 1.62347332e-001 1.24496132e-001
      1.62148401e-001 1.39679953e-001 5.04938699e-002 1.93854243e-001
      2.07843080e-001 2.39457369e-001 2.39457369e-001 2.39457369e-001
      1.10906072e-001 9.11926553e-002 9.50844511e-002 5.49190193e-002
      9.78302360e-002 8.28262325e-003 1.64225046e-002 3.64691466e-002
      1.63643509e-001 5.45959584e-002 1.50295481e-001 1.45044863e-001
      2.05908924e-001 9.76605564e-002 3.88563238e-002 1.54643983e-001
      2.33282804e-001 2.97775596e-001 1.10812522e-001 1.43736154e-001
      1.42976373e-001 2.32311383e-001 2.87901223e-001 2.04805024e-002
      1.24907447e-002 6.34075142e-003 5.04716784e-002 4.15266640e-002
      1.53507635e-001 2.97775596e-001 2.97775596e-001 2.97775596e-001
      6.67664632e-002 1.76914886e-001 6.36258721e-002 1.56996295e-001
      3.56342606e-002 1.28486603e-001 1.90643907e-001 2.97775596e-001
      1.05300851e-001 5.91323525e-002 1.45415783e-001 2.39060909e-001
      2.39060909e-001 1.53036296e-001 1.59521356e-001 1.46364242e-001
      1.44878954e-001 1.81931198e-001 1.53627142e-001 1.61305010e-001
      2.14615360e-001 2.19645515e-001 1.02224998e-001 1.24496385e-001
      1.03121571e-001 6.29887581e-002 2.39060909e-001 1.34661540e-001
      2.33631715e-001 1.43505841e-001 1.34211570e-001 2.20990088e-002
      1.18122138e-001 2.21313730e-001 2.39060909e-001 2.39060909e-001
      2.39060909e-001 2.39060909e-001 8.90434831e-002 8.93429518e-002
      2.89857164e-002 7.47356266e-002 1.48227140e-001 1.84180140e-001
      2.67834067e-001 2.67834067e-001 2.67834067e-001 1.44482538e-001
      1.26980394e-001 7.06129223e-002 1.07815154e-001 7.57714212e-002
      5.17028384e-002 2.67834067e-001 2.67834067e-001 2.67834067e-001
      1.28207475e-001 1.07392855e-001 3.47456448e-002 7.88671449e-002
      1.22449636e-001 8.41185525e-002 2.67834067e-001 2.67834067e-001
      2.67834067e-001 4.00780812e-002 6.13176636e-002 3.84117849e-002
      4.05369364e-002 5.08585386e-002 1.12217881e-001 2.67834067e-001
      2.52236158e-001 1.94613099e-001 1.00044003e-002 2.68403813e-002
      1.72388367e-002 4.81274351e-002 1.38980851e-001 1.12116151e-001</_>
    <_>
      2.91405290e-001 2.91405290e-001 6.53282851e-002 4.84588109e-002
      5.96584268e-002 1.56234661e-002 8.94053373e-004 5.56155248e-003
      1.72809422e-001 2.91405290e-001 2.91405290e-001 8.38804245e-002
      9.35639963e-002 1.31212458e-001 1.11259498e-001 1.40083060e-001
      8.13819915e-002 2.15726331e-001 2.11836219e-001 1.02987476e-001
      5.91007620e-002 7.72780776e-002 1.91260964e-001 1.25013024e-001
      4.74020652e-003 1.01846829e-002 9.06788781e-002 1.45814091e-001
      1.69633657e-001 1.53447956e-001 2.76889235e-001 2.91405290e-001
      2.91405290e-001 1.97264865e-001 1.09479457e-001 4.94767204e-002
      2.38401696e-001 2.07186446e-001 3.73695977e-002 4.25968356e-002
      1.22695819e-001 1.55135274e-001 1.94752708e-001 1.14747405e-001
      2.38401696e-001 2.02143177e-001 9.76916999e-002 1.10869840e-001
      5.95568866e-002 1.44112796e-001 1.62213787e-001 1.58030361e-001
      1.16589390e-001 2.38401696e-001 6.16850555e-002 1.11426450e-001
      1.42929181e-001 2.38401696e-001 2.38401696e-001 2.38401696e-001
      2.33853877e-001 9.71418098e-002 4.16057259e-002 5.17879836e-002
      1.49845853e-001 2.38401696e-001 1.68610334e-001 2.38401696e-001
      1.75850093e-001 2.38401696e-001 7.40018412e-002 7.33641163e-002
      1.25419870e-001 1.20055005e-001 1.13419838e-001 6.07952923e-002
      1.28039092e-001 9.40034389e-002 1.36452883e-001 2.67948061e-001
      2.67948061e-001 1.42378226e-001 8.63914341e-002 5.06411642e-002
      2.94141732e-002 4.66650389e-002 4.49412651e-002 2.67948061e-001
      2.67948061e-001 2.24803373e-001 6.53875172e-002 1.61393926e-001
      2.04817280e-001 1.26969725e-001 1.75284222e-001 9.06573907e-002
      2.46008307e-001 2.27605209e-001 1.89847380e-001 8.07700455e-002
      4.88967262e-002 5.58220595e-002 6.44515902e-002 1.10021360e-001
      1.48027331e-001 2.67948061e-001 2.67948061e-001 2.53351718e-001
      7.37400260e-003 1.36878993e-003 2.25846879e-002 2.51474120e-002
      1.91175252e-001 1.88456565e-001 9.96445678e-003 3.08276322e-002
      8.24085623e-003 8.33677351e-002 1.57506436e-001 2.54794866e-001
      2.32596457e-001 2.84348935e-001 2.84348935e-001 1.67395934e-001
      2.40589529e-001 4.84328857e-003 1.90807525e-002 1.82450179e-003
      5.37924021e-002 5.63703924e-002 2.53008097e-001 7.38425851e-002
      4.86196727e-002 1.85856540e-002 1.71522275e-002 9.99202952e-002
      9.96067673e-002 2.84348935e-001 2.84348935e-001 2.84348935e-001
      2.48392388e-001 2.35533491e-001 2.53083259e-001 4.19427529e-002
      5.19675724e-002 1.24305993e-001 1.63490817e-001 2.34246314e-001
      2.42304072e-001 1.76625967e-001 1.52719855e-001 1.01575889e-001
      7.71829439e-003 4.36326489e-002 9.58403945e-002 1.68450534e-001
      1.88590109e-001 2.42304072e-001 1.96786106e-001 2.42304072e-001
      7.11376518e-002 4.09824997e-002 6.21241294e-002 8.46095458e-002
      1.71262950e-001 1.79842860e-001 2.42304072e-001 2.13858366e-001
      2.42304072e-001 1.76324412e-001 3.33960019e-002 8.29848424e-002
      1.89060718e-001 1.50489271e-001 2.42304072e-001 2.42304072e-001
      2.06774309e-001 1.75239533e-001 1.05825841e-001 2.96375547e-002
      6.17075711e-002 1.31575584e-001 1.24471709e-001 1.42801106e-001
      1.80119470e-001 1.26225710e-001 2.02686384e-001 1.32613093e-001
      1.08398065e-001 5.80577850e-002 8.65890533e-002 9.58094001e-002
      2.22527027e-001 2.26653948e-001 1.50383011e-001 2.19237149e-001
      1.75881222e-001 1.54147819e-001 1.24914445e-001 2.49195799e-001
      2.49195799e-001 2.49195799e-001 2.49195799e-001 9.32346806e-002
      9.51324552e-002 8.03958774e-002 7.24472404e-002 1.67121097e-001
      2.49195799e-001 2.49195799e-001 2.49195799e-001 2.09820881e-001
      4.52644899e-002 6.54934719e-002 7.56037906e-002 1.07886426e-001
      1.08793691e-001 8.70891195e-003 1.39780501e-002 4.44318838e-002
      1.67151153e-001 4.39270586e-002 1.81503206e-001 1.39675349e-001
      1.46368474e-001 1.23139620e-001 8.41875523e-002 1.34651542e-001
      2.26029873e-001 2.90814966e-001 1.11052729e-001 1.75570980e-001
      8.62199143e-002 1.78254142e-001 2.90814966e-001 2.66467035e-002
      6.26951782e-003 2.15707663e-002 5.46606369e-002 4.18135375e-002
      2.37611845e-001 2.90814966e-001 2.90814966e-001 2.90814966e-001
      1.86247870e-001 1.17505223e-001 9.38517228e-002 1.66196927e-001
      7.66505674e-002 1.61181569e-001 1.37109905e-001 2.90814966e-001
      1.00223057e-001 1.06781512e-001 1.43768698e-001 2.13667676e-001
      2.36940607e-001 1.70293570e-001 1.72737986e-001 1.23656407e-001
      1.13574326e-001 1.45116210e-001 1.56697720e-001 1.40289798e-001
      2.03915611e-001 2.36940607e-001 1.71256542e-001 9.91454124e-002
      1.30928293e-001 6.94454834e-002 2.36940607e-001 1.76396385e-001
      1.91774458e-001 1.27208218e-001 1.75019130e-001 9.80464667e-002
      1.56128153e-001 1.27624765e-001 2.36940607e-001 2.36940607e-001
      1.15021549e-001 2.36940607e-001 1.47267833e-001 1.21274687e-001
      1.03813618e-001 1.37446284e-001 1.57457128e-001 2.21174777e-001
      1.89695284e-001 2.50032902e-001 2.50032902e-001 2.15910256e-001
      1.31017581e-001 9.50886533e-002 4.93973643e-002 7.69140199e-002
      1.04931161e-001 2.42656752e-001 2.50032902e-001 2.50032902e-001
      2.08378375e-001 5.07110208e-002 2.28736866e-002 4.94555272e-002
      7.44536817e-002 1.63971320e-001 2.50032902e-001 2.26108208e-001
      2.50032902e-001 1.06641427e-001 5.45229279e-002 6.36933446e-002
      7.67579079e-002 8.41743723e-002 2.09807977e-001 2.50032902e-001
      2.50032902e-001 2.30057314e-001 4.03643213e-002 2.40147188e-002
      1.58581380e-002 6.52733892e-002 6.09856173e-002 1.97566271e-001</_>
    <_>
      2.52382874e-001 2.52382874e-001 2.52382874e-001 1.99352786e-001
      9.63262096e-002 1.65908244e-002 4.08172272e-002 3.08727734e-002
      9.81017649e-002 2.52382874e-001 2.52382874e-001 2.33943999e-001
      1.59749478e-001 1.25189126e-001 1.01189673e-001 8.76744166e-002
      8.58325809e-002 2.25890875e-001 9.21373144e-002 1.18446939e-001
      1.18547700e-001 1.60336509e-001 2.52382874e-001 9.41207632e-002
      1.20165184e-001 4.74538691e-002 4.04483825e-002 1.76250681e-001
      1.08761862e-001 1.68663979e-001 2.52382874e-001 2.52382874e-001
      2.18179300e-001 1.87199533e-001 8.00229833e-002 6.52902946e-002
      1.49782464e-001 1.08096272e-001 1.32927969e-001 8.09246078e-002
      5.48777133e-002 2.36706808e-001 1.79302692e-001 1.62457064e-001
      2.18232498e-001 6.90766573e-002 2.24564299e-002 9.06735063e-002
      1.19140498e-001 8.58765766e-002 2.07685843e-001 2.25259423e-001
      2.17218906e-001 1.62367016e-001 1.36557505e-001 9.12704319e-002
      2.36706808e-001 2.36706808e-001 2.29456127e-001 2.36706808e-001
      1.65257618e-001 7.10499510e-002 5.85776605e-002 8.10178742e-002
      9.36746597e-002 2.36706808e-001 2.36706808e-001 2.36706808e-001
      2.36706808e-001 1.77660391e-001 9.02137160e-002 9.44919810e-002
      7.39080086e-002 3.98186520e-002 6.98177144e-002 7.53931403e-002
      7.51690120e-002 7.55628273e-002 1.52729809e-001 2.20747590e-001
      2.06634581e-001 1.85951605e-001 9.78836790e-002 2.20747590e-001
      2.03690633e-001 2.20747590e-001 5.31272590e-002 1.68637916e-001
      1.72097698e-001 2.20747590e-001 1.26427561e-001 9.63491127e-002
      2.09118858e-001 1.82413504e-001 2.20747590e-001 2.20747590e-001
      2.20747590e-001 1.41918480e-001 2.14143202e-001 1.79960787e-001
      6.45089820e-002 3.46824862e-002 8.47571045e-002 2.00046584e-001
      1.81278631e-001 2.20747590e-001 1.77831545e-001 2.20747590e-001
      3.24712545e-002 4.44501825e-002 6.13022149e-002 1.12105004e-001
      2.65355915e-001 1.14588760e-001 1.00075178e-001 3.03944238e-002
      3.03643383e-002 2.65355915e-001 8.00364092e-002 1.57510683e-001
      2.06561014e-001 2.65355915e-001 1.42356321e-001 1.95356190e-001
      1.46181762e-001 1.79502100e-001 4.77013029e-002 8.59104246e-002
      1.57391906e-001 2.55406618e-001 2.65355915e-001 1.06403306e-001
      8.54770020e-002 3.55830714e-002 5.17261811e-002 1.92975327e-001
      1.30779117e-001 2.38713413e-001 2.65355915e-001 2.65355915e-001
      1.63754225e-001 1.20782226e-001 1.64396003e-001 2.06467703e-001
      2.18720943e-001 1.17551170e-001 1.77543849e-001 2.06041873e-001
      1.67822540e-001 1.04100704e-001 8.23516175e-002 1.27739057e-001
      1.62232533e-001 1.17811054e-001 1.44598663e-001 2.18720943e-001
      2.18720943e-001 2.12316588e-001 2.16028154e-001 1.03645928e-001
      1.15387850e-001 1.04866773e-001 2.17639551e-001 1.13404080e-001
      7.48829767e-002 1.61922514e-001 2.18720943e-001 1.60404593e-001
      1.03348985e-001 1.98387384e-001 1.76909998e-001 1.34910196e-001
      1.38162956e-001 2.02174395e-001 2.18720943e-001 2.18720943e-001
      2.18720943e-001 1.00631677e-001 1.70729131e-001 9.26372856e-002
      1.15926906e-001 1.06984958e-001 1.94827199e-001 1.44018933e-001
      2.41343126e-001 2.41343126e-001 2.41343126e-001 9.70498174e-002
      1.12307563e-001 6.56190813e-002 2.27104258e-002 3.98835726e-002
      1.39046103e-001 2.41343126e-001 2.41343126e-001 2.41343126e-001
      1.01357780e-001 1.12248801e-001 1.31719530e-001 9.86575112e-002
      2.41343126e-001 2.41343126e-001 2.00089023e-001 1.90441757e-001
      1.20290950e-001 1.01146631e-001 7.33579919e-002 8.67256224e-002
      6.32155761e-002 2.41343126e-001 2.41343126e-001 2.41343126e-001
      1.68553114e-001 1.59799546e-001 4.83913422e-002 3.69760320e-002
      8.54199082e-002 5.54492697e-002 7.19002783e-002 1.11203387e-001
      2.47540429e-001 1.43869892e-001 1.27122775e-001 1.26755029e-001
      1.08470410e-001 8.11138749e-002 6.93048164e-002 1.11905091e-001
      2.35692382e-001 2.67675608e-001 2.16722518e-001 1.19144730e-001
      8.02472234e-002 5.66139817e-002 1.11623108e-001 1.63866132e-002
      1.70032773e-002 7.67994905e-003 1.09116144e-001 2.61116922e-001
      2.67675608e-001 2.67675608e-001 2.38375694e-001 2.14137033e-001
      6.35315776e-002 6.27530068e-002 1.41129315e-001 1.79358259e-001
      1.42511651e-001 2.57020831e-001 2.67675608e-001 2.53596902e-001
      1.05526589e-001 8.61814395e-002 1.39058471e-001 2.38640308e-001
      2.38640308e-001 2.03734636e-001 1.00463629e-001 8.00472051e-002
      3.74780968e-002 1.04448587e-001 9.63297635e-002 1.47424459e-001
      2.38640308e-001 2.38640308e-001 2.38640308e-001 1.13749675e-001
      9.80652124e-002 4.05464657e-002 2.38640308e-001 1.29462048e-001
      1.85665131e-001 2.38640308e-001 1.92469761e-001 7.36207590e-002
      6.93938658e-002 1.01329766e-001 1.78280860e-001 2.38640308e-001
      2.38640308e-001 1.82355359e-001 2.38640308e-001 2.34740511e-001
      1.20762981e-001 4.38199230e-002 6.04836084e-002 1.24918193e-001
      2.22617075e-001 1.08434983e-001 2.34195426e-001 2.39410624e-001
      2.39410624e-001 1.65991858e-001 8.67175460e-002 1.12119541e-001
      7.63828009e-002 1.79797068e-001 1.37298420e-001 2.39410624e-001
      2.39410624e-001 2.08337799e-001 7.06016794e-002 3.97022143e-002
      6.72872886e-002 5.39004020e-002 2.39410624e-001 2.27302358e-001
      9.96637866e-002 1.10432908e-001 2.37260342e-001 1.43024415e-001
      9.20755863e-002 1.07581921e-001 2.39410624e-001 2.39410624e-001
      8.03379640e-002 3.36631723e-002 4.97973002e-002 1.90912902e-001
      9.25446525e-002 1.17895067e-001 1.45861804e-001 2.39410624e-001</_>
    <_>
      2.50498086e-001 2.50498086e-001 2.50498086e-001 1.79729313e-001
      1.18795022e-001 3.00040357e-002 3.25523950e-002 2.37512738e-002
      1.09333485e-001 2.50498086e-001 2.50498086e-001 2.50498086e-001
      1.87978700e-001 1.29555508e-001 1.06984533e-001 7.44655877e-002
      1.25210077e-001 1.63106933e-001 8.10841769e-002 1.70595556e-001
      1.28851578e-001 1.57850623e-001 2.50498086e-001 1.05803691e-001
      1.17421575e-001 4.94669639e-002 4.20228690e-002 9.08266753e-002
      1.54336289e-001 1.49168208e-001 2.50498086e-001 2.50498086e-001
      2.17514470e-001 1.77365422e-001 1.22766994e-001 7.68897086e-002
      1.38776779e-001 1.22388557e-001 1.27339035e-001 8.00593719e-002
      6.33358434e-002 2.37186506e-001 1.92786127e-001 1.92929864e-001
      1.61743820e-001 6.13975935e-002 3.50444689e-002 9.97661352e-002
      8.40622559e-002 8.34919289e-002 1.88659281e-001 2.37186506e-001
      2.26054505e-001 1.48296669e-001 6.55664578e-002 1.05297484e-001
      2.20431939e-001 2.37186506e-001 2.37186506e-001 2.37186506e-001
      1.94969878e-001 1.16104014e-001 6.57012239e-002 1.19132921e-001
      9.97337475e-002 2.37186506e-001 2.37186506e-001 2.37186506e-001
      2.37186506e-001 1.89016148e-001 7.25281835e-002 8.54507461e-002
      9.40335840e-002 2.45900899e-002 8.22459459e-002 6.62925243e-002
      5.29796742e-002 8.48291144e-002 1.81886345e-001 2.12771118e-001
      2.10680574e-001 2.18427941e-001 1.08032383e-001 1.95913672e-001
      2.13916153e-001 2.18427941e-001 1.05504073e-001 8.34457725e-002
      1.15088418e-001 2.18427941e-001 1.88737780e-001 9.74903330e-002
      2.18427941e-001 2.18427941e-001 1.66155741e-001 2.18427941e-001
      2.08981872e-001 1.09762959e-001 2.13802636e-001 2.04617918e-001
      7.11596161e-002 4.93622869e-002 7.99782053e-002 1.69978604e-001
      2.18427941e-001 2.11268649e-001 1.79357290e-001 2.18427941e-001
      2.71029044e-002 4.55279909e-002 5.07302769e-002 1.10140532e-001
      2.54878044e-001 1.16637304e-001 1.02704212e-001 4.75307964e-002
      1.67002119e-002 1.50396645e-001 1.41751438e-001 1.79042399e-001
      2.00614899e-001 2.54878044e-001 1.51081771e-001 2.10921720e-001
      2.19909564e-001 2.08748892e-001 5.61825894e-002 7.42731392e-002
      1.40293285e-001 2.54878044e-001 2.54878044e-001 8.18665847e-002
      6.80744350e-002 5.54143228e-002 1.95513554e-002 1.45499319e-001
      1.38755336e-001 2.54878044e-001 2.54878044e-001 2.54878044e-001
      1.70837134e-001 7.82245025e-002 2.01024741e-001 2.54878044e-001
      1.63845792e-001 1.47732630e-001 1.96612999e-001 1.86963141e-001
      1.76709458e-001 9.19556320e-002 8.26645494e-002 1.63490653e-001
      2.16010049e-001 1.67137474e-001 1.23754963e-001 2.16714188e-001
      2.16714188e-001 1.68492854e-001 2.16714188e-001 8.91000330e-002
      6.52571321e-002 1.17130421e-001 1.79363668e-001 1.07864268e-001
      1.31634429e-001 1.55293494e-001 2.16714188e-001 1.82124645e-001
      6.79200813e-002 2.13336617e-001 2.16714188e-001 1.69965789e-001
      9.95750949e-002 1.97406784e-001 2.16714188e-001 1.73531637e-001
      2.16714188e-001 1.28631726e-001 1.09160356e-001 1.56337410e-001
      1.65261656e-001 8.97120088e-002 1.72083661e-001 2.15702519e-001
      1.32578582e-001 2.44478688e-001 2.44478688e-001 6.31045699e-002
      1.30821303e-001 5.61910532e-002 1.99922975e-002 4.37803753e-002
      1.07488565e-001 2.44478688e-001 2.44478688e-001 2.44478688e-001
      1.37534812e-001 1.17842101e-001 1.35008752e-001 1.03647202e-001
      2.44478688e-001 2.44478688e-001 1.43211693e-001 1.93752781e-001
      1.40979633e-001 3.60527784e-002 1.30993471e-001 8.42121914e-002
      5.01172505e-002 2.44478688e-001 2.44478688e-001 2.44478688e-001
      1.96829438e-001 1.42030254e-001 5.33001684e-002 5.60511574e-002
      7.34308138e-002 7.99455568e-002 7.04108477e-002 1.50917813e-001
      2.73201734e-001 9.15898979e-002 1.19722351e-001 1.62754223e-001
      5.52468970e-002 5.13351783e-002 8.87527391e-002 1.29486665e-001
      2.73201734e-001 2.73201734e-001 2.08716586e-001 8.01807940e-002
      8.16801712e-002 8.60295221e-002 7.76500478e-002 5.65702729e-002
      2.29890663e-002 2.35517491e-002 1.94164589e-001 1.93010002e-001
      2.73201734e-001 2.73201734e-001 1.40530601e-001 1.47358030e-001
      1.05825521e-001 8.87819752e-002 1.46472767e-001 1.97449312e-001
      1.65033981e-001 2.69127160e-001 2.73201734e-001 2.45752901e-001
      7.86718130e-002 7.70830512e-002 1.74450964e-001 2.37084746e-001
      2.37084746e-001 2.37084746e-001 8.65571797e-002 6.89357966e-002
      9.13264528e-002 1.02710702e-001 6.09557629e-002 1.87925473e-001
      2.37084746e-001 2.37084746e-001 2.37084746e-001 1.62487209e-001
      5.68527505e-002 8.61695036e-002 1.91255897e-001 1.44302592e-001
      2.37084746e-001 2.37084746e-001 1.56288743e-001 1.21889926e-001
      6.06220774e-002 7.34210238e-002 2.00889945e-001 1.51420116e-001
      1.82598546e-001 2.37084746e-001 2.37084746e-001 2.31542632e-001
      1.30654901e-001 4.11097519e-002 2.82947961e-002 1.00985520e-001
      1.85391322e-001 1.14815459e-001 2.41802335e-001 2.41802335e-001
      2.41802335e-001 1.81574509e-001 1.03589214e-001 4.83940877e-002
      1.32191896e-001 2.06391767e-001 9.15932879e-002 2.41802335e-001
      2.41802335e-001 1.92555279e-001 1.01161122e-001 2.25422867e-002
      2.38559470e-002 6.63060844e-002 2.41802335e-001 2.16321737e-001
      2.30263621e-001 1.55666590e-001 2.41802335e-001 1.15086950e-001
      8.24031979e-002 1.06676824e-001 1.63558617e-001 2.41802335e-001
      7.20549151e-002 1.05629362e-001 7.49115944e-002 1.61063582e-001
      5.53499535e-002 1.23767875e-001 1.88651621e-001 1.75800338e-001</_>
    <_>
      1.82051226e-001 2.55091637e-001 2.55091637e-001 1.51848480e-001
      1.67750701e-001 3.93521599e-002 2.32989863e-002 2.53387857e-002
      9.83465463e-002 2.55091637e-001 2.00789452e-001 1.79123908e-001
      2.55091637e-001 2.41437763e-001 1.31670311e-001 7.17436597e-002
      1.02787614e-001 2.05603406e-001 6.28205985e-002 5.27218804e-002
      4.98283468e-002 1.52598649e-001 2.55091637e-001 1.42790005e-001
      1.01893738e-001 3.72628793e-002 6.65371791e-002 1.15383320e-001
      1.06809571e-001 1.61672324e-001 2.55091637e-001 2.55091637e-001
      2.54525602e-001 1.79498598e-001 1.04904406e-001 1.06000818e-001
      1.25938311e-001 5.42138517e-002 8.37891027e-002 1.66241914e-001
      1.39471740e-001 2.37053201e-001 1.78682879e-001 1.54342666e-001
      1.73938096e-001 5.40631302e-002 1.79729797e-002 1.02618925e-001
      1.80441186e-001 1.52961031e-001 2.17372730e-001 2.37053201e-001
      1.75150424e-001 1.30814761e-001 1.03743680e-001 8.40346143e-002
      2.37053201e-001 2.37053201e-001 2.37053201e-001 2.37053201e-001
      1.53101787e-001 6.81332350e-002 9.58610848e-002 9.61000994e-002
      3.61194797e-002 2.37053201e-001 2.37053201e-001 2.37053201e-001
      2.37053201e-001 1.76267341e-001 1.11320443e-001 5.38873300e-002
      8.56510550e-002 5.31804971e-002 1.07044704e-001 1.69297576e-001
      1.11499287e-001 1.09669983e-001 1.75513014e-001 2.24819109e-001
      2.09279940e-001 1.99892074e-001 6.43593296e-002 8.18107203e-002
      1.53749272e-001 1.30306482e-001 7.56749064e-002 9.40194055e-002
      2.24819109e-001 2.24819109e-001 1.27328351e-001 6.61653355e-002
      2.24819109e-001 2.24819109e-001 2.24819109e-001 2.24819109e-001
      2.24819109e-001 2.07223192e-001 1.45410240e-001 1.28500029e-001
      4.48518582e-002 5.93266301e-002 1.06338553e-001 1.58001944e-001
      2.08464280e-001 2.24819109e-001 2.24819109e-001 2.24819109e-001
      1.82985291e-002 2.89823916e-002 4.99976054e-002 1.34877786e-001
      2.52302736e-001 1.31141782e-001 8.42697024e-002 2.75664367e-002
      2.24186890e-002 1.71737269e-001 1.93727121e-001 1.78032830e-001
      1.58073321e-001 2.52302736e-001 2.12434009e-001 2.20040441e-001
      1.44912347e-001 2.52302736e-001 2.35324837e-002 8.59332681e-002
      1.26529142e-001 2.52302736e-001 2.52302736e-001 7.39353523e-002
      7.28118494e-002 3.93217839e-002 3.47026251e-002 1.34066492e-001
      1.69266820e-001 1.93973169e-001 2.52302736e-001 2.52302736e-001
      2.07636937e-001 1.53727382e-001 1.18667483e-001 2.52302736e-001
      2.02153429e-001 1.27706513e-001 2.18984962e-001 1.23427160e-001
      1.02687523e-001 1.17637008e-001 1.21468380e-001 1.05264902e-001
      2.18984962e-001 1.36623472e-001 4.47107367e-002 2.18984962e-001
      1.99067876e-001 2.12933347e-001 1.69707105e-001 1.12131350e-001
      1.18792459e-001 1.74855024e-001 1.48309276e-001 7.42287710e-002
      1.02759503e-001 1.53842509e-001 2.18984962e-001 2.09601000e-001
      1.69443354e-001 1.38121530e-001 2.18984962e-001 1.11457139e-001
      6.77462667e-002 2.18984962e-001 2.18984962e-001 1.74297571e-001
      2.18984962e-001 1.98433578e-001 1.08068123e-001 2.18984962e-001
      7.18498603e-002 2.74023078e-002 2.31334791e-001 1.99366719e-001
      2.31334791e-001 2.23067656e-001 2.27418736e-001 1.48014799e-001
      1.30494997e-001 3.79766263e-002 1.21795908e-002 1.21014617e-001
      1.58680961e-001 2.31334791e-001 2.19703615e-001 2.31334791e-001
      1.46344915e-001 1.09390862e-001 1.02667369e-001 1.07300855e-001
      2.31334791e-001 2.31334791e-001 1.95038185e-001 2.07058221e-001
      1.45852730e-001 7.35085085e-002 9.92709398e-002 6.74473867e-002
      1.11615099e-001 2.31334791e-001 2.31334791e-001 2.30479404e-001
      1.56641796e-001 1.44433469e-001 6.64162561e-002 3.13533284e-002
      4.76257876e-002 4.92855571e-002 6.84144348e-002 1.70551151e-001
      2.61402220e-001 1.07348055e-001 1.14005364e-001 1.29515037e-001
      8.65527391e-002 5.14540747e-002 5.94499782e-002 1.10270217e-001
      2.61402220e-001 2.61402220e-001 2.54234672e-001 1.42347068e-001
      6.55999780e-002 4.69432734e-002 8.49392265e-002 1.72716193e-002
      2.30180118e-002 2.93341242e-002 1.31861791e-001 2.40621001e-001
      2.61402220e-001 2.61402220e-001 2.12193102e-001 1.95298716e-001
      7.91193470e-002 9.57317948e-002 1.86201870e-001 1.64681613e-001
      1.82076931e-001 2.44368792e-001 2.61402220e-001 2.30135337e-001
      4.75873314e-002 5.77431694e-002 1.80431798e-001 2.49460608e-001
      2.49460608e-001 2.49460608e-001 1.40747204e-001 6.30423576e-002
      6.48323223e-002 5.52904904e-002 7.22929090e-002 2.07702368e-001
      2.49460608e-001 1.65620595e-001 2.49460608e-001 2.14555904e-001
      6.56793788e-002 7.16259852e-002 2.37263173e-001 1.41562536e-001
      2.49460608e-001 2.49460608e-001 1.15698561e-001 9.88325179e-002
      7.72337094e-002 7.93311596e-002 1.40765488e-001 1.86335862e-001
      1.38771057e-001 2.49460608e-001 2.49460608e-001 1.51513234e-001
      1.27435192e-001 6.17071241e-002 3.21766101e-002 8.59009773e-002
      1.69231281e-001 1.97142035e-001 2.07184166e-001 2.38063887e-001
      1.98736921e-001 2.38063887e-001 1.55098125e-001 6.24833442e-002
      8.21286142e-002 1.73018679e-001 2.38063887e-001 2.38063887e-001
      2.38063887e-001 1.37743220e-001 6.88180849e-002 5.43940142e-002
      4.95752133e-002 6.26987815e-002 2.38063887e-001 1.86623380e-001
      1.51188537e-001 2.22856551e-001 1.98479891e-001 1.69099882e-001
      7.36775473e-002 7.70677552e-002 1.79357409e-001 2.38063887e-001
      1.42261639e-001 4.75712828e-002 1.00741774e-001 1.24133848e-001
      6.97526112e-002 6.32396042e-002 1.44226760e-001 2.38063887e-001</_>
    <_>
      2.58038312e-001 1.08597979e-001 2.70859376e-002 8.42793062e-002
      1.10582285e-001 4.65530455e-002 3.57591212e-002 8.86889324e-002
      2.58038312e-001 2.58038312e-001 1.15231246e-001 1.24545217e-001
      2.58038312e-001 2.58038312e-001 1.28934279e-001 7.05666468e-002
      5.65831810e-002 2.58038312e-001 1.16196916e-001 6.46227822e-002
      2.34719273e-002 6.06158078e-002 2.24248558e-001 1.74472719e-001
      1.76756144e-001 1.20204099e-001 1.40471101e-001 5.67194931e-002
      6.36720583e-002 1.35914207e-001 2.40174145e-001 2.58038312e-001
      2.58038312e-001 2.58038312e-001 1.82897270e-001 1.28327847e-001
      1.39844880e-001 1.16502859e-001 1.09410308e-001 1.73493370e-001
      2.46616036e-001 1.15917556e-001 4.92265485e-002 5.26226126e-002
      2.25011274e-001 1.40584365e-001 6.41029775e-002 8.37908983e-002
      1.36062846e-001 2.11498439e-001 6.69932738e-002 9.23533291e-002
      2.34393269e-001 2.46616036e-001 1.04663223e-001 1.40261307e-001
      1.82405174e-001 2.24434569e-001 2.46616036e-001 2.18477055e-001
      1.61702305e-001 1.28145009e-001 1.13401808e-001 1.35900795e-001
      2.27244049e-001 1.99664652e-001 2.42107376e-001 2.46616036e-001
      1.56911984e-001 6.49031997e-002 1.08815588e-001 1.44931719e-001
      1.11603715e-001 2.58440450e-002 6.95011988e-002 8.24995786e-002
      9.29651186e-002 4.64036576e-002 1.32094443e-001 2.48401150e-001
      2.48401150e-001 1.57764211e-001 1.78923272e-002 1.56166991e-002
      2.85611302e-002 5.58929071e-002 4.54617068e-002 2.39907026e-001
      2.48401150e-001 2.48401150e-001 1.84040099e-001 9.27582607e-002
      1.09005705e-001 2.45571852e-001 2.48401150e-001 1.84322417e-001
      1.54411197e-001 1.57129839e-001 1.85529962e-001 2.37426043e-001
      5.94385900e-002 7.90434927e-002 1.45277888e-001 1.69349730e-001
      1.96111709e-001 2.48401150e-001 2.48401150e-001 1.93874165e-001
      2.52045169e-002 5.61015308e-002 4.26268652e-002 3.75459157e-002
      1.43508956e-001 1.45089954e-001 1.36743546e-001 7.51417428e-002
      3.77146304e-002 1.18815787e-001 1.28366798e-001 1.38166562e-001
      1.12459123e-001 2.50780582e-001 2.50780582e-001 2.50780582e-001
      2.50780582e-001 2.16728970e-001 3.45716141e-002 5.79395182e-002
      8.93843323e-002 2.50780582e-001 2.50780582e-001 6.31754249e-002
      3.29443105e-002 5.69906868e-002 3.96550670e-002 1.21996835e-001
      1.53877810e-001 2.37963393e-001 2.50780582e-001 2.50780582e-001
      2.01813087e-001 1.62797064e-001 2.50780582e-001 2.50780582e-001
      1.90218627e-001 1.57946631e-001 1.12594247e-001 1.15949959e-001
      1.67798996e-001 1.30058631e-001 1.43149778e-001 2.23356962e-001
      1.65252686e-001 1.46383226e-001 1.81035176e-001 1.05480880e-001
      2.23356962e-001 2.23356962e-001 1.70616806e-001 8.93364176e-002
